
\data\
ngram 1=6173
ngram 2=18007
ngram 3=369

\1-grams:
-3.583142	'em	0.0026748
-0.9917064	</s>
-99	<s>	-0.252603
-1.589706	a	-0.09899514
-4.361293	abbreviate	-0.04923023
-4.361293	abdomen	-0.04997666
-4.361293	abides	-0.04923023
-3.884172	ability	-0.3008804
-3.884172	able	-0.3008804
-4.361293	ably	-0.008344873
-4.361293	abolish	-0.05501482
-4.361293	aborigine	-0.05186569
-4.361293	aborigines	-0.008344873
-2.856143	about	-0.002633335
-3.662323	above	0.01827881
-4.060263	abruptly	-0.006552236
-4.361293	absences	-0.05501482
-4.361293	absent	-0.008344873
-4.361293	absolute	-0.05499592
-4.361293	absolution	-0.05197991
-4.361293	absorbed	-0.05475011
-4.361293	absorption	-0.0472912
-4.361293	absurd	-0.008344873
-4.361293	absurdly	-0.05488249
-4.361293	abyss	-0.0472912
-4.060263	academic	-0.05497703
-4.361293	accelerating	-0.05501482
-4.361293	accelerometer	-0.05501482
-4.361293	accelerometers	-0.05459878
-4.361293	accent	-0.008344873
-4.060263	accept	-0.0333707
-4.361293	acceptance	-0.0472912
-4.361293	accepted	-0.05342414
-4.361293	access	-0.04719498
-4.060263	accident	-0.008260689
-4.361293	acclaim	-0.008344873
-4.361293	acclaimed	-0.05266462
-4.361293	accommodate	-0.05499592
-4.361293	accomplish	-0.05427701
-4.361293	accomplished	-0.05499592
-4.361293	accomplishments	-0.05501482
-3.884172	according	-0.3008804
-4.361293	accordingly	-0.05501482
-4.060263	account	-0.004943108
-4.361293	accounts	-0.04923023
-4.361293	accreditation	-0.0472912
-4.361293	accuracy	-0.05342414
-4.361293	accurate	-0.05493921
-4.361293	accusations	-0.05342414
-4.361293	accuse	-0.0437169
-4.361293	accusingly	-0.008344873
-4.060263	ace	-0.05497703
-4.361293	aches	-0.05501482
-4.361293	achieve	-0.0437169
-4.361293	achieved	-0.05342414
-4.361293	acknowledge	-0.008344873
-4.361293	acknowledged	-0.0374837
-4.361293	acquiescence	-0.05291161
-4.060263	acquire	-0.0436781
-4.361293	acres	-0.0472912
-4.361293	acropolis	-0.0536707
-3.407051	across	-0.3446634
-4.060263	act	-0.04727197
-3.662323	action	-1.097746
-4.361293	actions	-0.0472912
-4.361293	activated	-0.05501482
-3.884172	activities	-0.1228554
-3.759233	activity	-0.1800417
-4.361293	actor	-0.05501482
-4.361293	actors	-0.0540308
-3.759233	acts	-0.219978
-3.759233	actual	-0.05471229
-3.759233	actually	-0.05255058
-4.060263	adage	-0.008092252
-4.361293	adaptations	-0.05201798
-3.361293	add	-0.0273778
-3.884172	added	-0.008113302
-4.361293	added:	-0.05495811
-4.361293	addition	-0.04788727
-4.361293	additives	-0.05399291
-4.060263	address	-0.008323836
-4.361293	addressed	-0.05469337
-4.060263	adequate	-0.05493922
-4.361293	adhesive	-0.05501482
-4.361293	adjourned	-0.008344873
-4.361293	adjustable	-0.05501482
-4.361293	adjustments	-0.04719498
-4.361293	administration	-0.04997666
-4.060263	administrative	-0.04784885
-4.361293	admire	-0.05325336
-4.060263	admitted	-0.04396904
-4.361293	admitting	-0.05230338
-4.361293	adopted	-0.0374837
-4.060263	adult	-0.05459879
-4.361293	adulterers	-0.008344873
-4.361293	adulthood	-0.008344873
-4.361293	adults	-0.05459878
-3.759233	advance	-0.05306353
-4.361293	advanced	-0.0549203
-4.361293	advances	-0.05454201
-3.884172	advantage	-0.3009766
-4.361293	advantages	-0.0437169
-4.361293	adventure	-0.008344873
-4.361293	adventures	-0.04788727
-4.060263	advertising	-0.05182761
-4.060263	advice	-0.05068363
-4.361293	advisable	-0.05197991
-4.060263	advised	-0.008281738
-4.361293	advisement	-0.008344873
-4.361293	aerial	-0.05501482
-4.361293	affect	-0.0374837
-4.361293	affectionate	-0.05501482
-4.361293	affirmative	-0.05493921
-4.361293	afloat	-0.008344873
-3.884172	afraid	-0.03978026
-3.130844	after	-0.07553749
-4.361293	afternoon	-0.008344873
-4.361293	afterwards	-0.05178952
-3.106021	again	-0.3326937
-3.516195	against	-0.08019832
-3.583142	age	-0.1030215
-3.884172	agency	-0.008260681
-4.361293	agenda	-0.008344873
-4.361293	agents	-0.05439061
-4.361293	agglomeration	-0.0472912
-4.361293	aggressive	-0.05501482
-4.361293	aglow	-0.008344873
-3.759233	ago	-0.1807835
-4.361293	agony	-0.008344873
-4.060263	agree	-0.04487937
-4.361293	agreed	-0.008344873
-4.361293	agricultural	-0.05497701
-4.361293	ahah	-0.04923023
-3.884172	ahead	-0.1156065
-3.884172	aid	-0.003668513
-4.361293	aids	-0.04923023
-4.060263	aim	-0.04675212
-4.361293	aimed	-0.0437169
-4.361293	aimless	-0.05469337
-3.662323	ain't	-0.1151978
-3.516195	air	-0.04304341
-4.060263	airborne	-0.1951366
-4.060263	aircraft	-0.05457987
-4.060263	airfields	-0.005981255
-4.060263	airplanes	-0.05270263
-4.361293	al	-0.05495811
-4.361293	alarm	-0.008344873
-4.361293	alcohol	-0.008344873
-4.361293	alcoholic	-0.05499592
-4.361293	alcoholics	-0.008344873
-4.361293	alcoves	-0.04923023
-4.361293	alert	-0.05395501
-4.361293	alfalfa	-0.04997666
-4.361293	algae	-0.05484467
-4.361293	algebraic	-0.05499592
-4.361293	alibi	-0.05495811
-4.361293	alice	-0.05444739
-4.361293	alice's	-0.05497701
-4.361293	alien	-0.05488249
-4.361293	aligned	-0.05291161
-4.361293	aligning	-0.0536707
-4.060263	alimony	-0.05499593
-4.361293	alkaline	-0.008344873
-2.503961	all	0.03397777
-4.361293	all-purpose	-0.05499592
-4.361293	allergies	-0.05501482
-4.361293	alleviate	-0.05499592
-4.361293	alligators	-0.05201798
-4.361293	allot	-0.05493921
-3.458203	allow	-0.02490441
-4.361293	allowable	-0.05501482
-4.361293	allowance	-0.05399291
-4.361293	allowed	-0.05197991
-4.361293	allure	-0.05197991
-4.361293	almonds	-0.04788727
-3.319901	almost	-0.05306353
-3.884172	alone	-0.005578996
-3.458203	along	-0.1053868
-4.060263	aloud	-0.1951366
-3.407051	already	-0.04063366
-2.804991	also	-0.01803592
-4.361293	alternated	-0.05291161
-4.060263	alternative	-0.1951366
-3.759233	although	-0.04970886
-4.361293	altogether	-0.008344873
-4.361293	aluminum	-0.05501482
-4.361293	alumni	-0.05501482
-3.106021	always	-0.04815621
-4.361293	am	-0.008344873
-4.361293	amateur	-0.05493921
-4.361293	amaze	-0.05490139
-4.361293	amazed	-0.05499592
-4.361293	ambassador	-0.05469337
-4.361293	ambassador's	-0.05501482
-4.361293	amber	-0.05497701
-4.361293	ambidextrous	-0.05501482
-4.060263	ambiguity	-0.05497703
-4.060263	ambiguous	-0.008155423
-4.361293	ambitions	-0.008344873
-4.361293	ambitious	-0.008344873
-4.361293	ambled	-0.05469337
-4.060263	ambulance	-0.04984279
-4.361293	american	-0.05499592
-4.361293	ammo	-0.008344873
-4.361293	amoebas	-0.0549203
-3.884172	among	-0.03620256
-4.361293	amorist	-0.05501482
-4.361293	amount	-0.0472912
-4.060263	amounts	0.0003925329
-4.361293	ample	-0.04788727
-2.442215	an	-0.08511098
-4.361293	anaesthesia	-0.008344873
-3.583142	analysis	-0.08990688
-4.361293	analyticity	-0.0472912
-4.361293	anarchy	-0.0547312
-4.361293	anatomical	-0.05450417
-4.361293	anchor	-0.05197991
-4.060263	ancient	-0.04995754
-1.787262	and	0.04184511
-4.361293	andrei's	-0.05501482
-4.361293	anecdotal	-0.05493921
-4.361293	anger	-0.05501482
-4.361293	angora	-0.05499592
-4.361293	angrily	-0.008344873
-4.060263	angry	-0.008092252
-4.361293	angular	-0.05501482
-3.884172	animal	-0.04601942
-4.060263	animals	-0.006150512
-4.361293	ankle	-0.0526076
-4.361293	announcing	-0.05493921
-4.060263	annoying	-0.05456094
-4.361293	annual	-0.05499592
-4.361293	anonymous	-0.05501482
-3.130844	another	-0.04017162
-3.759233	answer	-0.08903003
-3.583142	answered	-0.1148332
-4.060263	answers	-0.04623165
-4.060263	ant	-0.05499593
-4.361293	antagonistic	-0.05497701
-4.361293	antarctic	-0.008344873
-4.361293	antelope	-0.008344873
-4.361293	anti-infective	-0.05501482
-4.060263	anti-slavery	-0.05497703
-4.361293	anticipated	-0.008344873
-4.361293	antigen	-0.05190376
-4.361293	antiseptic	-0.04788727
-4.361293	antithesis	-0.0472912
-4.361293	ants	-0.05497701
-4.361293	anxiety	-0.05306353
-2.829814	any	-0.01469864
-3.884172	anybody	-0.05450417
-4.060263	anyhow	-0.003944999
-3.884172	anyone	-0.05272163
-4.361293	anyone's	-0.05497701
-3.407051	anything	0.01856981
-3.884172	anyway	-0.1191717
-4.361293	apartments	-0.05201798
-4.361293	apology	-0.008344873
-4.361293	apparently	-0.05501482
-4.361293	appealing	-0.008344873
-4.060263	appear	-0.04682918
-3.884172	appearance	-0.1156065
-4.361293	appeared	-0.0472912
-4.060263	appears	-0.008260689
-4.361293	appetite	-0.05501482
-4.361293	appetites	-0.05186569
-4.361293	appetizers	-0.008344873
-4.361293	apple	-0.008344873
-4.060263	apples	-0.04198685
-4.060263	appliances	-0.0003798511
-4.361293	applicability	-0.04719498
-4.060263	application	-0.2340829
-4.361293	applications	-0.008344873
-4.361293	applied	-0.05291161
-4.361293	applies	-0.04719498
-4.361293	apply	-0.05501482
-4.361293	applying	-0.05499592
-4.361293	appointed	-0.04719498
-4.361293	appointment	-0.04923023
-4.361293	appraisal	-0.008344873
-4.361293	appreciate	-0.0374837
-4.060263	appreciated	-0.1951366
-4.361293	appreciatively	-0.04788727
-3.884172	approach	-0.006467686
-4.361293	approached	-0.008344873
-4.361293	appropriate	-0.05497701
-4.060263	approval	-0.04999579
-4.361293	approved	-0.05291161
-4.361293	approvingly	-0.0437169
-4.361293	approximated	-0.05397396
-4.361293	approximation	-0.008344873
-4.361293	aprons	-0.05493921
-4.060263	aptitude	-0.04993842
-4.361293	aquatic	-0.05501482
-4.361293	arbitrary	-0.05306353
-4.361293	arbitrate	-0.008344873
-4.361293	arboreal	-0.05501482
-4.361293	arc	-0.0549203
-4.361293	arcade	-0.008344873
-4.361293	archeological	-0.05497701
-2.159896	are	-0.06462035
-3.662323	area	-0.0655349
-4.060263	areas	-0.04617378
-4.060263	aren't	-0.05159906
-4.361293	argue	-0.05493921
-4.060263	argued	-0.001877789
-4.361293	argument	-0.0374837
-4.361293	arise	-0.05439061
-4.060263	arises	-0.05357589
-4.060263	aristocratic	-0.05497703
-3.759233	arm	-0.08905121
-4.361293	armchair	-0.05501482
-4.361293	armed	-0.05291161
-4.060263	arms	-0.0548825
-3.884172	army	-0.04978539
-4.361293	arose	-0.05501482
-3.157173	around	-0.1422232
-4.361293	arrange	-0.05197991
-4.361293	arranged	-0.04719498
-4.361293	arrival	-0.0472912
-4.361293	arrive	-0.05342414
-4.361293	arrived	-0.008344873
-4.361293	arriving	-0.0526076
-3.662323	art	-0.05478795
-4.361293	article	-0.05190376
-4.361293	articulation	-0.04788727
-4.361293	artificial	-0.05497701
-4.361293	artist	-0.04997666
-4.361293	artistic	-0.05501482
-4.060263	artists	-0.05499593
-2.264383	as	-0.2580191
-4.361293	ashamed	-0.0472912
-4.361293	ashtray	-0.05501482
-3.884172	aside	-0.1621714
-3.759233	ask	-0.05329132
-3.583142	asked	-0.04913444
-4.060263	asleep	-0.04754128
-4.361293	aspect	-0.008344873
-4.361293	aspects	-0.0472912
-4.361293	assail	-0.05327234
-4.361293	assassin	-0.008344873
-4.361293	assaults	-0.05376549
-4.361293	assembled	-0.04923023
-4.361293	assembling	-0.05497701
-4.361293	assert	-0.05490139
-4.361293	assign	-0.05306353
-4.060263	assignment	-0.0461352
-4.361293	assistance	-0.008344873
-4.361293	assistant	-0.05499592
-4.361293	associated	-0.05291161
-4.361293	associates	-0.04923023
-4.361293	associations	-0.05499592
-3.884172	assume	-0.05022518
-4.361293	assumed	-0.0374837
-4.361293	assure	-0.05406869
-4.361293	assured	-0.05355692
-4.361293	assuredly	-0.05490139
-4.361293	assures	-0.05355692
-4.361293	assuring	-0.05497701
-4.361293	asthma	-0.05501482
-4.361293	astonishingly	-0.05495811
-4.060263	astronomy	0.004275197
-4.361293	astrophysics	-0.008344873
-2.431875	at	-0.1517328
-3.759233	ate	-0.04099234
-4.060263	atheists	-0.04723348
-4.361293	athletic	-0.05497701
-4.060263	atmosphere	-0.007944815
-3.884172	atomic	-0.05488249
-4.361293	atoms	-0.05395501
-4.361293	atop	-0.0437169
-4.361293	attach	-0.05501482
-4.060263	attack	-0.0508745
-3.884172	attacked	0.01311811
-4.361293	attempted	-0.04923023
-4.361293	attendance	-0.04997666
-4.361293	attendants	-0.0540308
-3.759233	attention	-0.08945342
-3.884172	attitude	-0.001642733
-4.361293	attracted	-0.05355692
-4.060263	attractive	-0.007902681
-4.361293	attributed	-0.04719498
-4.361293	atypical	-0.05499592
-4.361293	auburn	-0.05488249
-4.060263	audience	-0.0003798511
-4.361293	audio-visual	-0.05497701
-4.361293	audition	-0.008344873
-4.361293	auditors	-0.008344873
-4.361293	auditory	-0.05499592
-4.361293	audits	-0.008344873
-4.361293	augmented	-0.05342414
-4.361293	aunt	-0.05480685
-4.361293	austere	-0.05475011
-4.361293	author	-0.05342414
-4.361293	author's	-0.0549203
-4.361293	authorities	-0.05478794
-4.060263	authority	-0.008302787
-4.361293	authorization	-0.0472912
-4.361293	authorized	-0.0374837
-4.060263	autistic	-0.2416931
-4.361293	autofluorescence	-0.05376549
-4.361293	autographs	-0.008344873
-4.060263	automatic	-0.05497703
-4.361293	automobile	-0.05501482
-4.361293	autonomy	-0.0472912
-4.060263	autumn	-0.008239637
-3.662323	available	0.01069249
-4.361293	avalanche	-0.05501482
-4.361293	average	-0.0472912
-4.361293	avocado	-0.05456093
-4.361293	avocados	-0.05482576
-4.060263	avoid	-0.05497703
-4.361293	avoided	-0.05342414
-4.361293	avoiding	-0.0536707
-4.361293	avowed	-0.05499592
-4.361293	aw	-0.05493921
-4.361293	awards	-0.008344873
-4.361293	aware	-0.0472912
-3.060263	away	-0.2402814
-4.361293	awe	-0.0546177
-4.361293	awe-inspiring	-0.008344873
-4.361293	awkward	-0.008344873
-4.361293	awkward:	-0.05465553
-4.361293	awoke	-0.05308252
-4.361293	axis	-0.008344873
-4.361293	babbled	-0.008344873
-4.361293	baboon's	-0.05484467
-2.981082	back	-0.1148123
-4.361293	backed	-0.05404975
-4.361293	backgrounds	-0.008344873
-4.361293	backward	-0.008344873
-4.361293	backyards	-0.008344873
-4.060263	bacteria	-0.008323836
-3.458203	bad	-0.1655247
-4.361293	badness	-0.05495811
-4.361293	baffle	-0.05342414
-4.060263	bag	-0.0003798511
-4.361293	bagpipes	-0.04788727
-4.060263	bags	-0.007881613
-4.361293	bake	-0.0549203
-4.060263	balance	-0.007333474
-4.361293	bale	-0.0526076
-4.361293	baleful	-0.05266462
-3.662323	ball	-0.1343348
-4.060263	ballet	-0.008323836
-4.361293	ballets	-0.0532154
-4.060263	balloons	-0.05095083
-4.361293	ballplayer	-0.008344873
-4.060263	balls	-0.03430349
-4.361293	ballyhoo	-0.05408763
-4.361293	bandaged	-0.05459878
-4.361293	bandages	-0.008344873
-4.361293	bank	-0.05501482
-4.361293	bankers	-0.05497701
-4.361293	banks	-0.05178952
-4.361293	barb	-0.05499592
-4.361293	barb's	-0.05499592
-4.361293	barbaric	-0.008344873
-4.361293	barbecue	-0.0549203
-3.884172	barbed	-0.3086246
-4.361293	bare	-0.05501482
-3.884172	barely	-0.05469337
-4.361293	bargains	-0.05266462
-4.361293	bark	-0.008344873
-4.361293	barley	-0.04997666
-4.361293	barn	-0.008344873
-4.361293	barometric	-0.05495811
-4.361293	barracuda	-0.05501482
-4.361293	barrels	-0.0532154
-4.361293	barricades	-0.0472912
-4.361293	barriers	-0.008344873
-4.361293	base	-0.0472912
-4.361293	baseball	-0.008344873
-4.361293	baseball's	-0.05332927
-4.060263	based	-0.2393993
-4.060263	basic	-0.05484468
-4.060263	basis	-0.008218586
-4.060263	basketball	-0.05313948
-4.060263	bath	-0.05467446
-4.361293	bathe	-0.05406869
-4.361293	bathing	-0.0374837
-3.884172	baths	-0.05359485
-4.361293	bathtubs	-0.008344873
-4.361293	battery	-0.05501482
-4.361293	battery-powered	-0.05497701
-4.361293	batting	-0.05501482
-4.361293	bay	-0.0472912
-4.361293	bayed	-0.05397396
-4.361293	bayonet	-0.05493921
-4.361293	bayou	-0.008344873
-4.361293	bazaar	-0.008344873
-2.205957	be	0.005409722
-4.361293	beach	-0.05499592
-4.361293	beans	-0.04923023
-4.361293	beard	-0.04788727
-4.361293	beat	-0.05384131
-4.361293	beatniks	-0.05501482
-3.662323	beautiful	-0.007143568
-4.060263	beautifully	-0.008323836
-4.060263	beauty	-0.0471565
-4.361293	becalmed	-0.0374837
-3.662323	became	-0.02545107
-3.583142	because	-0.07967879
-4.361293	beckons	-0.05444739
-3.407051	become	-0.08903532
-4.060263	becomes	-0.05425809
-4.361293	becoming	-0.05499592
-3.884172	bed	-0.04736816
-4.361293	bedlam	-0.008344873
-3.884172	bedroom	-0.007565456
-4.361293	bedrooms	-0.008344873
-3.884172	beds	-0.008239631
-4.060263	beefsteak	-0.1951366
-2.914135	been	0.00646179
-4.361293	beep	-0.05495811
-4.060263	beer	-0.05499593
-4.361293	beers	-0.05190376
-3.157173	before	-0.006479433
-4.060263	beg	-0.05274064
-3.361293	began	-0.3463467
-4.361293	beggar	-0.008344873
-3.759233	begin	-0.02700627
-4.361293	beginning	-0.008344873
-4.361293	begins	-0.05291161
-4.361293	behaved	-0.04997666
-3.884172	behavior	0.003041934
-3.407051	behind	-0.1405196
-3.319901	being	-0.005091558
-4.361293	belched	-0.05497701
-4.060263	believe	-0.04827141
-4.060263	believed	-0.05035895
-4.361293	bellhops	-0.008344873
-4.361293	bellows	-0.008344873
-4.361293	bells	-0.05501482
-4.361293	belong	-0.04923023
-4.361293	belongs	-0.04719498
-4.361293	beloved	-0.05499592
-3.662323	below	-0.001706853
-4.361293	belt	-0.05501482
-4.060263	bench	-0.008302787
-4.060263	beneath	-0.2242754
-4.060263	benefit	-0.05372759
-3.884172	benefits	-0.1235505
-4.361293	bequests	-0.0437169
-4.361293	bereft	-0.008344873
-4.060263	beside	-0.05374654
-4.361293	besides	-0.008344873
-3.583142	best	-0.04317335
-4.361293	bet	-0.04719498
-4.361293	betide	-0.0374837
-4.361293	betrayed	-0.05332927
-3.458203	better	-0.003455712
-3.458203	between	-0.03394648
-4.060263	beverage	-0.008302787
-4.060263	beverages	-0.00498553
-3.583142	beyond	-0.006171652
-4.361293	biblical	-0.05501482
-4.060263	bibliographies	-0.0003798511
-4.361293	bickering	-0.008344873
-4.361293	bidding	-0.008344873
-3.106021	big	-0.05177049
-4.060263	bigger	-0.04779119
-4.361293	bike	-0.05499592
-4.361293	bill	-0.05342414
-4.361293	billowed	-0.0437169
-4.361293	bills	-0.008344873
-4.361293	binomial	-0.05501482
-4.361293	biological	-0.05501482
-4.361293	biologists	-0.05476902
-4.361293	biology	-0.04788727
-4.361293	biracial	-0.05499592
-4.060263	birds	-0.006319704
-3.662323	birth	-0.1923355
-3.884172	birthday	-0.05486358
-4.361293	biscuit	-0.008344873
-3.662323	bit	-0.04391086
-4.361293	bites	-0.0532154
-4.361293	bitter	-0.05501482
-4.361293	bivouac	-0.05495811
-4.361293	bizarre	-0.05501482
-3.361293	black	-0.08577177
-4.361293	blackened	-0.05501482
-4.361293	blame	-0.05327234
-4.361293	blank	-0.008344873
-4.361293	blankets	-0.008344873
-4.361293	blasphemous	-0.05501482
-4.361293	blastdown	-0.008344873
-4.361293	bleachers	-0.008344873
-4.361293	blend	-0.05495811
-4.361293	bleu	-0.05495811
-3.884172	blew	-0.04909613
-4.361293	blindness	-0.05501482
-4.361293	blissful	-0.04788727
-4.361293	blistered	-0.05376549
-4.361293	blitz	-0.0532154
-4.361293	bloat	-0.008344873
-4.361293	block	-0.05495811
-4.361293	blockade	-0.04997666
-4.060263	blocks	-0.05317745
-4.361293	blonde	-0.05488249
-4.361293	blouses	-0.008344873
-3.884172	blow	-0.008050124
-4.361293	blowers	-0.05456093
-4.361293	blowing	-0.0549203
-3.884172	blue	-0.05465554
-4.361293	bluejay	-0.05497701
-4.361293	blues	-0.008344873
-4.361293	bluffs	-0.05501482
-4.361293	bluing	-0.008344873
-4.361293	bluish	-0.05490139
-4.361293	blunt	-0.0374837
-4.361293	bluntly	-0.05178952
-4.361293	board	-0.008344873
-4.361293	boardinghouses	-0.05306353
-4.060263	boat	-0.008260689
-4.361293	boat's	-0.05469337
-3.884172	bob	-0.05480685
-4.361293	bobby	-0.05499592
-4.361293	bobcat	-0.04788727
-4.361293	bodies	-0.05501482
-3.583142	body	-0.001963215
-4.361293	bog	-0.05499592
-4.361293	bogged	-0.05446631
-4.060263	boil	-0.007923749
-4.361293	boiling	-0.05484467
-4.361293	bold	-0.008344873
-4.361293	bolt	-0.05501482
-4.361293	bomb	-0.05493921
-4.060263	bombs	-0.1951366
-3.884172	bone	-0.1171045
-3.759233	bones	-0.1754785
-4.361293	bonfire	-0.008344873
-4.361293	bongos	-0.05201798
-4.060263	book	-0.04204527
-3.884172	books	-0.1202122
-4.361293	boom	-0.04923023
-4.361293	boomerang	-0.05501482
-4.060263	boost	-0.04995754
-4.361293	bootleggers	-0.04923023
-3.884172	boots	-0.003604685
-4.361293	bored	-0.05501482
-4.361293	boring	-0.05499592
-4.361293	born	-0.008344873
-4.060263	borrow	-0.05283563
-3.884172	boss	-0.001835055
-4.361293	boston	-0.05499592
-2.999566	both	-0.01019304
-4.060263	bother	-0.05030163
-4.361293	bothers	-0.05439061
-4.060263	bottle	-0.008302787
-4.361293	bottom	-0.008344873
-3.759233	bought	-0.05009138
-4.361293	bounce	-0.05501482
-4.361293	bounded	-0.05342414
-4.361293	bounds	-0.008344873
-4.361293	bourgeois	-0.05501482
-3.458203	bowl	-0.1581058
-3.884172	box	-0.1232347
-3.282112	boy	0.009046396
-4.361293	boy's	-0.05499592
-3.759233	boys	0.0007147718
-4.361293	bracelet	-0.05190376
-4.361293	braiding	-0.05501482
-3.884172	brain	-0.006108197
-4.361293	brakes	-0.05501482
-4.361293	branch	-0.05501482
-4.060263	brand	-0.2340829
-4.361293	brave	-0.05495811
-4.361293	bread	-0.008344873
-4.060263	break	-0.05051177
-4.361293	breakdown	-0.0472912
-4.060263	breakfast	-0.1951366
-4.361293	breaking	-0.05497701
-4.361293	breast	-0.05497701
-4.361293	breath	-0.008344873
-4.361293	breathed	-0.05197991
-4.361293	breathlessly	-0.008344873
-4.361293	breed	-0.0472912
-4.361293	breeze	-0.05493921
-4.361293	brick	-0.008344873
-4.361293	bricks	-0.05201798
-4.361293	bridal	-0.05497701
-4.361293	bride	-0.05484467
-4.361293	bride's	-0.05501482
-4.361293	bridge	-0.05488249
-4.361293	bridges	-0.05501482
-3.759233	brief	-0.0509699
-3.884172	briefly	-0.03744433
-3.662323	bright	-0.04761818
-4.361293	brighter	-0.008344873
-4.361293	brightly	-0.05275963
-4.361293	brim	-0.05475011
-3.583142	bring	-0.04099233
-3.884172	brings	-0.05378445
-4.361293	bristles	-0.05201798
-4.361293	broccoli	-0.04788727
-4.361293	brochure	-0.04997666
-4.361293	broil	-0.05306353
-4.060263	broke	-0.05051177
-4.060263	broken	-0.007249083
-4.361293	bronc	-0.04923023
-3.759233	brother	-0.09101639
-4.361293	brother's	-0.05497701
-3.516195	brought	-0.04439538
-3.662323	brown	-0.05275963
-4.361293	brows	-0.05465553
-4.361293	bruises	-0.04788727
-4.060263	brush	-0.05418234
-4.361293	brushy	-0.05501482
-4.361293	bubbles	-0.05439061
-4.361293	buckle	-0.008344873
-4.361293	buddies	-0.05499592
-4.361293	buddy	-0.008344873
-4.361293	buff	-0.008344873
-4.361293	buffalo	-0.05501482
-4.361293	bugeyed	-0.04788727
-4.361293	bugged	-0.05422021
-4.361293	bugle	-0.05501482
-3.884172	build	-0.04089471
-4.361293	builders	-0.008344873
-4.060263	building	-0.006552236
-4.361293	buildings	-0.04788727
-4.060263	built	-0.04655943
-4.060263	bulged	-0.03744434
-4.361293	bull-like	-0.05501482
-4.060263	bullet	-0.006171666
-4.361293	bullets	-0.0532154
-4.361293	bum	-0.05463662
-4.361293	bump	-0.05431488
-4.361293	bungalow	-0.05190376
-4.361293	bunks	-0.05342414
-4.361293	buns	-0.05306353
-4.361293	bureaucracy	-0.008344873
-4.361293	burglar	-0.05408763
-4.060263	burn	-0.05203702
-4.060263	burned	-0.05492031
-4.361293	burner	-0.008344873
-4.060263	burning	-0.05403081
-4.361293	burst	-0.05493921
-4.361293	bursting	-0.008344873
-4.361293	bury	-0.05469337
-4.060263	bus	-0.006150512
-4.361293	bushel	-0.008344873
-3.662323	business	-0.07217588
-4.060263	busy	-0.04896198
-2.388165	but	-0.07428461
-4.361293	butcher	-0.05501482
-4.361293	butter	-0.05497701
-4.361293	butterfly	-0.05495811
-4.361293	butterscotch	-0.05501482
-4.361293	buttonholes	-0.008344873
-4.361293	buttons	-0.05439061
-3.516195	buy	-0.03942773
-4.361293	buyer	-0.008344873
-4.060263	buying	-0.04342581
-4.361293	buys	-0.05493921
-4.361293	buzz	-0.008344873
-4.060263	buzzing	-0.05497703
-2.431875	by	-0.07333568
-4.361293	c'mon	-0.04923023
-4.060263	cab	-0.008218586
-4.361293	cabinets	-0.05501482
-4.361293	cable	-0.05499592
-4.361293	cafe	-0.008344873
-4.060263	cafeteria	-0.05467446
-4.361293	cage	-0.0472912
-4.361293	calcium	-0.05490139
-4.361293	calendar	-0.008344873
-4.361293	calendars	-0.008344873
-4.361293	calf	-0.05501482
-4.361293	calico	-0.05499592
-3.884172	call	-0.04700249
-3.662323	called	-0.002496849
-4.361293	calling	-0.0532154
-3.884172	calls	-0.0321969
-4.361293	calm	-0.04788727
-3.018871	came	-0.05510924
-4.361293	cameo	-0.05408763
-4.060263	camera	-0.05478795
-3.884172	camp	-0.0549014
-4.361293	camping	-0.05499592
-4.361293	campus	-0.05499592
-2.637017	can	-0.0984556
-4.060263	can't	-0.05492031
-4.361293	candies	-0.04923023
-4.361293	candles	-0.05342414
-4.361293	candy	-0.05266462
-4.361293	canister	-0.04788727
-4.361293	canned	-0.05499592
-3.884172	cannot	-0.1674159
-4.361293	canoes	-0.05497701
-4.361293	cantaloupe	-0.04788727
-4.361293	canteen	-0.05291161
-4.361293	canter	-0.05291161
-4.361293	cap'n	-0.008344873
-4.060263	capable	-0.2340829
-4.361293	capillary	-0.05493921
-4.361293	capital	-0.05306353
-4.361293	capitalists	-0.008344873
-4.361293	capitalize	-0.0526076
-4.361293	capsule	-0.008344873
-4.361293	captain	-0.05190376
-4.361293	captured	-0.04923023
-4.060263	car	-0.008239637
-4.361293	car's	-0.05499592
-4.361293	caraway	-0.05493921
-4.361293	cardboard	-0.05499592
-4.361293	cards	-0.008344873
-4.060263	care	-0.04667505
-4.361293	carefree	-0.05501482
-3.884172	careful	-0.05049267
-3.759233	carefully	-0.0473874
-4.361293	carl	-0.05499592
-4.361293	carol	-0.05495811
-3.884172	carpet	-0.0549203
-4.361293	carriage	-0.05501482
-3.884172	carried	0.004882306
-4.361293	carries	-0.0437169
-3.884172	carry	-0.04171406
-4.060263	carrying	-0.04354227
-3.884172	cars	-0.05081724
-4.361293	cartilage	-0.05501482
-4.361293	cartoon	-0.05497701
-4.060263	cartoons	-0.04198685
-4.361293	carved	-0.008344873
-3.884172	case	0.0008222378
-3.583142	cases	-0.002091345
-4.361293	cash	-0.0549203
-4.361293	cashmere	-0.05501482
-4.361293	cassandra	-0.05501482
-4.361293	cast	-0.008344873
-4.361293	castor	-0.05488249
-4.361293	castorbeans	-0.05418233
-4.361293	casual	-0.05495811
-4.361293	casually	-0.008344873
-4.060263	cat	-0.04717575
-4.361293	cat's	-0.05501482
-4.361293	catastrophic	-0.05495811
-4.060263	catch	-0.05098899
-4.361293	categories	-0.008344873
-4.361293	catkins	-0.008344873
-4.060263	cats	-0.05199895
-3.884172	cattle	-0.007902674
-4.060263	caught	-0.05490141
-4.361293	cauliflower	-0.008344873
-3.662323	caused	-0.1033485
-4.361293	causes	-0.05355692
-4.361293	causeway	-0.05501482
-4.361293	caution:	-0.05499592
-4.361293	cavity	-0.05439061
-4.361293	cease-fire	-0.008344873
-4.361293	ceiling	-0.0549203
-4.361293	celebrate	-0.05412551
-4.361293	celebrates	-0.0374837
-4.361293	cellophane	-0.05495811
-3.884172	cells	-0.1215464
-4.060263	cement	-0.04995754
-4.361293	censorship	-0.008344873
-4.361293	census	-0.008344873
-4.361293	cent	-0.008344873
-4.361293	centered	-0.0526076
-4.361293	centering	-0.0472912
-4.361293	central	-0.05501482
-4.361293	centre	-0.008344873
-4.361293	centrifuge	-0.05501482
-4.361293	centuries	-0.04719498
-4.361293	century	-0.008344873
-4.361293	ceramic	-0.05499592
-4.060263	cereal	-0.04919193
-4.361293	cerebral	-0.05501482
-3.662323	certain	-0.1200868
-4.361293	certainly	-0.05499592
-4.361293	chablis	-0.008344873
-4.361293	chain	-0.0523224
-4.060263	chair	-0.04786807
-4.361293	chairs	-0.05501482
-4.361293	challenge	-0.05457986
-4.361293	challenged	-0.05384131
-4.060263	chamber	-0.008302787
-3.884172	chance	-0.03819163
-3.583142	change	-0.05851273
-4.361293	changed	-0.04923023
-3.884172	changes	-0.1039841
-4.361293	changing	-0.05397396
-4.060263	chaos	-0.007839473
-4.060263	character	-0.04725273
-4.361293	characteristics	-0.05197991
-4.361293	characters	-0.008344873
-3.759233	charge	-0.04684843
-4.361293	charged	-0.05291161
-4.361293	charlie's	-0.05497701
-4.361293	charm	-0.04788727
-4.361293	charmer	-0.05439061
-4.361293	chart	-0.05495811
-4.361293	chases	-0.05499592
-4.361293	chasing	-0.0437169
-4.361293	chastity	-0.0526076
-4.361293	chattering	-0.05423914
-4.361293	chauffeur-driven	-0.05499592
-4.361293	chaw	-0.0472912
-4.060263	cheap	-0.008323836
-4.361293	cheating	-0.008344873
-3.884172	check	0.01230071
-4.361293	checked	-0.05431488
-4.361293	cheek	-0.008344873
-3.759233	cheese	-0.08741736
-4.361293	cheetal	-0.05501482
-3.884172	chemical	-0.1702037
-4.361293	chemicals	-0.05201798
-4.060263	chest	-0.1951366
-4.361293	chestnuts	-0.05201798
-4.361293	chests	-0.05499592
-4.361293	chew	-0.0526076
-4.361293	chicken	-0.05422021
-3.884172	chief	-0.0549014
-4.361293	chiefly	-0.0549203
-3.516195	child	0.01420299
-4.060263	childhood	-0.04410474
-3.407051	children	-0.02363337
-4.361293	chilled	-0.05306353
-4.361293	chills	-0.04788727
-4.361293	chip	-0.05499592
-4.361293	chipper	-0.05308252
-4.361293	chives	-0.04997666
-4.361293	chloride	-0.05501482
-4.361293	chlorine	-0.04788727
-4.361293	chocolate	-0.04788727
-3.884172	choices	-0.03685346
-4.361293	choir	-0.05501482
-4.361293	choke	-0.05197991
-4.361293	choose	-0.05495811
-4.361293	choosing	-0.05327234
-4.060263	chop	-0.03746403
-4.361293	chopped	-0.05499592
-4.361293	choreographer	-0.05459878
-4.060263	chortled	-0.008323836
-4.361293	chorused	-0.05499592
-4.060263	chose	-0.04317336
-4.060263	chosen	-0.05209411
-4.361293	chrome	-0.04788727
-4.361293	chroniclers	-0.05201798
-4.361293	chronological	-0.05486358
-4.361293	chronologically	-0.008344873
-4.060263	chuck	-0.008302787
-4.361293	chuckled	-0.0374837
-4.060263	church	-0.00718578
-4.361293	cigar	-0.008344873
-4.361293	cigarette	-0.008344873
-4.361293	cigarettes	-0.04923023
-4.361293	cinch	-0.008344873
-4.361293	cinematic	-0.008344873
-4.361293	circle	-0.05439061
-4.361293	circled	-0.05327234
-4.060263	circumstances	-0.04921109
-4.060263	citizen	-0.007227984
-4.060263	citizenship	-0.008281738
-4.361293	city	-0.05431488
-4.361293	civil	-0.05501482
-4.361293	civilian	-0.0549203
-4.361293	civilization	-0.04997666
-4.361293	civilized	-0.05497701
-4.361293	claimed	-0.0536707
-4.361293	clamp	-0.05501482
-4.361293	clams	-0.05342414
-4.361293	clamshell	-0.0549203
-4.361293	clapping	-0.05501482
-4.361293	clarification	-0.008344873
-4.361293	clarified	-0.04788727
-4.361293	clarify	-0.0437169
-4.361293	clashed	-0.04923023
-4.361293	clasp	-0.0374837
-4.361293	clasped	-0.05486358
-3.884172	class	-0.002624817
-4.361293	class-biased	-0.05501482
-4.361293	classical	-0.05499592
-4.060263	classrooms	-0.05196088
-4.361293	clatter	-0.05422021
-4.361293	clause	-0.008344873
-3.407051	clay	-0.03244342
-4.361293	clay:	-0.05495811
-4.060263	clean	-0.05499593
-4.361293	cleaned	-0.05493921
-3.884172	cleaners	-0.0461159
-4.361293	cleaning	-0.0536707
-4.361293	cleans	-0.05497701
-3.884172	clear	-0.04919192
-4.361293	cleared	-0.05501482
-4.361293	clearer	-0.05501482
-4.361293	clearing	-0.0547312
-3.662323	clearly	-0.05387922
-4.361293	clerk's	-0.05471228
-4.361293	clerks	-0.05376549
-4.361293	clever	-0.0549203
-4.361293	cliff	-0.05190376
-4.361293	cliff's	-0.05497701
-4.060263	climates	-0.1951366
-4.361293	climax	-0.05497701
-3.884172	climbed	-0.03523428
-4.361293	climbing	-0.04788727
-4.361293	clinches	-0.008344873
-4.361293	cling	-0.04719498
-4.361293	clockwork	-0.008344873
-3.516195	close	-0.04072752
-4.060263	closer	-0.008092252
-4.361293	closet	-0.008344873
-4.361293	closing	-0.008344873
-4.361293	clot	-0.05306353
-3.662323	cloth	-0.03942773
-4.060263	clothes	-0.001877789
-4.361293	clotheshorse	-0.05401186
-4.361293	clothing	-0.008344873
-4.361293	clotted	-0.05499592
-3.884172	cloud	-0.1149415
-4.361293	cloudburst	-0.05488249
-4.361293	clouds	-0.05499592
-4.361293	cloverleaf	-0.05495811
-3.662323	club	-0.005112766
-3.884172	clumsy	-0.006531095
-4.361293	coach	-0.05418233
-4.361293	coagulating	-0.04788727
-4.361293	coal-black	-0.05490139
-4.361293	coalition	-0.05190376
-4.361293	coals	-0.008344873
-4.361293	coast	-0.04997666
-3.884172	coat	-0.0003155308
-4.361293	coauthors	-0.05283562
-4.361293	cobbler's	-0.05497701
-4.361293	coconut	-0.05490139
-4.361293	coconuts	-0.05497701
-4.361293	code	-0.008344873
-4.361293	codes	-0.04788727
-4.361293	coeducational	-0.008344873
-4.361293	coexist	-0.008344873
-4.060263	coffee	-0.002710118
-4.361293	coffers	-0.05501482
-4.361293	coil	-0.0472912
-4.361293	coin	-0.04719498
-3.884172	coincided	-0.306597
-4.060263	coins	-0.001877789
-4.361293	coke	-0.05499592
-3.884172	cold	-0.0549203
-4.361293	cold-blooded	-0.05501482
-4.361293	coleslaw	-0.05471228
-4.361293	collared	-0.05395501
-4.361293	colleagues	-0.05291161
-4.361293	collection	-0.05488249
-4.361293	collects	-0.05495811
-4.060263	colleges	-0.05196088
-4.361293	collie	-0.0549203
-4.361293	collusion	-0.008344873
-3.759233	color	-0.1865066
-4.361293	colored	-0.0374837
-4.060263	colorful	-0.008323836
-4.361293	colossal	-0.05497701
-4.060263	column	-0.04719499
-4.361293	combine	-0.0536707
-4.361293	combustion	-0.05499592
-3.106021	come	-0.06565847
-3.759233	comes	-0.1355049
-3.759233	coming	-0.03426384
-4.361293	command	-0.05499592
-4.361293	comment	-0.008344873
-4.361293	commercial	-0.05501482
-3.516195	common	-0.03263495
-4.361293	commonplace	-0.008344873
-4.361293	communism	-0.008344873
-3.884172	community	-0.1179368
-4.361293	compact	-0.05499592
-4.361293	companions	-0.008344873
-3.759233	company	-0.09078442
-4.361293	company's	-0.05501482
-4.361293	comparable	-0.05501482
-4.361293	compare	-0.05501482
-4.361293	comparison	-0.04997666
-4.361293	compensation	-0.04997666
-4.361293	competently	-0.05501482
-4.361293	competing	-0.05501482
-4.361293	competition	-0.008344873
-4.361293	competitive	-0.05266462
-4.060263	competitors	-0.1951366
-4.361293	compile	-0.008344873
-3.884172	complete	-0.05493921
-3.662323	completely	-0.05493921
-4.361293	complex	-0.008344873
-4.361293	complexity	-0.0472912
-4.361293	compliance	-0.05291161
-4.361293	complicated	-0.008344873
-4.361293	complicity	-0.05201798
-4.361293	compose	-0.05469337
-4.361293	composition	-0.05431488
-4.361293	compositions	-0.0472912
-4.361293	compost	-0.05501482
-4.361293	composure	-0.008344873
-4.361293	compound	-0.008344873
-4.361293	compounded	-0.0374837
-4.361293	compounds	-0.05201798
-4.361293	compresses	-0.04719498
-4.361293	compulsion	-0.008344873
-4.361293	compulsory	-0.05499592
-4.361293	computer	-0.05499592
-4.361293	computers	-0.05201798
-4.361293	comrades	-0.0532154
-4.361293	conceivably	-0.0374837
-4.361293	conceived	-0.05499592
-4.060263	concept	-0.2340829
-4.060263	concern	-0.03430349
-4.361293	concerns	-0.05501482
-4.361293	concert	-0.008344873
-4.361293	concessionaire	-0.05497701
-4.361293	conclusion	-0.008344873
-4.361293	conclusions	-0.05408763
-4.060263	concrete	-0.05490141
-4.361293	concurrent	-0.05497701
-4.361293	condemns	-0.05355692
-4.060263	condition	0.01124258
-4.060263	conditions	-0.0003798511
-4.361293	confabulation	-0.05418233
-4.361293	conferences	-0.008344873
-4.060263	confidence	-0.236022
-4.361293	confidential	-0.05499592
-4.060263	configuration	-0.007860543
-4.361293	confines	-0.008344873
-4.361293	confirm	-0.05495811
-4.060263	confirmation	-0.04327048
-4.361293	conformational	-0.05501482
-4.361293	conformists	-0.05475011
-4.361293	confronted	-0.05342414
-4.060263	confusion	-0.008239637
-4.361293	congestion	-0.008344873
-4.361293	congratulate	-0.0374837
-4.361293	congregation	-0.008344873
-4.361293	conjured	-0.05404975
-4.361293	connoisseur	-0.05408763
-4.361293	conscience	-0.008344873
-4.361293	consequences	-0.0472912
-4.361293	conservatism	-0.04788727
-4.060263	consider	-0.05106529
-4.361293	considerable	-0.05497701
-4.361293	considerably	-0.0549203
-3.884172	considered	-0.1622292
-4.361293	considering	-0.05495811
-4.361293	consistently	-0.008344873
-4.060263	consists	-0.2340829
-4.361293	consolidation	-0.008344873
-4.361293	conspicuous	-0.05501482
-4.060263	constantly	-0.008323836
-4.361293	construction	-0.008344873
-4.361293	constructions	-0.05501482
-4.361293	consume	-0.05450417
-4.361293	consumers	-0.05486358
-4.361293	consuming	-0.008344873
-4.361293	consumption	-0.008344873
-4.361293	contact	-0.05291161
-4.361293	contagious	-0.05501482
-3.884172	contain	-0.05497702
-4.361293	contained	-0.0546177
-4.361293	container	-0.05456093
-4.060263	contains	-0.05465554
-4.361293	contemporary	-0.008344873
-4.361293	contentedly	-0.008344873
-4.361293	continental	-0.05501482
-4.060263	continue	-0.2339867
-3.759233	continued	-0.1280963
-4.361293	continues	-0.04719498
-4.361293	continuing	-0.05501482
-4.060263	continuous	-0.008323836
-4.361293	continuously	-0.05325336
-4.361293	contradictorily	-0.008344873
-4.060263	contrary	-0.04717575
-3.884172	contrast	0.0004999246
-4.361293	contribute	-0.04719498
-4.060263	contributed	-0.2339867
-4.060263	contributions	-0.04623165
-4.361293	contributory	-0.05306353
-3.884172	control	-0.008113302
-4.361293	controlled	-0.0374837
-4.361293	controls	-0.05306353
-4.060263	convenient	-0.2387716
-4.361293	converted	-0.05501482
-4.361293	convey	-0.04923023
-4.361293	conviction	-0.04923023
-4.361293	convince	-0.04788727
-4.361293	convincing	-0.05499592
-4.060263	cook	-0.0547123
-4.361293	cooked-over	-0.05501482
-4.361293	cookies	-0.05495811
-4.060263	cooking	-0.008050132
-4.361293	cool	-0.008344873
-4.361293	cooperated	-0.05501482
-4.361293	cooperates	-0.04923023
-4.361293	cooperation	-0.05488249
-4.361293	cooperative	-0.0547312
-4.361293	cop	-0.05306353
-4.361293	copper	-0.05306353
-4.361293	copra	-0.05439061
-4.361293	copy	-0.008344873
-4.361293	cordial	-0.05501482
-4.060263	corduroy	-0.05492031
-4.060263	corn	-0.05499593
-3.884172	corner	-0.05372758
-4.361293	cornered	-0.05342414
-4.361293	cornmeal	-0.008344873
-4.361293	corollaries	-0.008344873
-4.060263	correct	-0.05403081
-4.361293	corrugated	-0.05501482
-4.361293	corsage	-0.05499592
-4.060263	cory	-0.04782963
-4.361293	cosmetics	-0.008344873
-3.662323	cost	-0.04433727
-4.361293	costly	-0.05325336
-4.060263	costs	-0.008260689
-4.361293	costume	-0.0549203
-3.884172	costumes	0.003041934
-4.060263	cottage	-0.05482577
-4.361293	cotton	-0.05499592
-4.060263	cough	-0.008281738
-2.829814	could	-0.05970027
-4.361293	could've	-0.05325336
-3.759233	couldn't	-0.04988104
-4.060263	count	-0.03495724
-4.361293	counted	-0.008344873
-4.361293	counties	-0.05450417
-3.884172	country	-0.04017162
-4.361293	countryside	-0.008344873
-4.060263	county	-0.04919193
-4.361293	couples	-0.05501482
-4.361293	courier	-0.05190376
-3.662323	course	-0.03620257
-4.361293	court	-0.05291161
-4.361293	courts	-0.05501482
-4.361293	courtyard	-0.04997666
-4.361293	cover	-0.05404975
-3.759233	coverage	0.006012034
-4.060263	covered	-0.04369751
-4.060263	covers	-0.2305086
-4.060263	cow	-0.05497703
-4.361293	coward	-0.008344873
-4.361293	cowboy	-0.05493921
-4.361293	cowboy's	-0.05501482
-4.361293	cowling	-0.05499592
-3.884172	cows	-0.1235295
-4.361293	coy	-0.05497701
-4.361293	coyote	-0.05501482
-4.361293	crab	-0.05501482
-4.060263	crack	-0.02941891
-4.361293	cracked	-0.05501482
-4.361293	craft	-0.008344873
-4.361293	cranberry	-0.05501482
-4.361293	crash	-0.008344873
-4.060263	crashed	-0.0536707
-4.361293	crashing	-0.05446631
-4.361293	crave	-0.0437169
-4.361293	crawling	-0.05457986
-4.361293	crayons	-0.008344873
-4.361293	crazily	-0.05501482
-4.060263	crazy	-0.05300657
-3.516195	cream	-0.04014118
-4.060263	create	-0.0545231
-4.060263	created	-0.04731045
-4.361293	creation	-0.008344873
-4.060263	credit	-0.008260689
-4.361293	creeping	-0.05501482
-4.361293	creole	-0.05499592
-4.361293	crept	-0.05497701
-4.361293	crest	-0.05440953
-4.361293	crestfallen	-0.05266462
-4.361293	crew	-0.05499592
-4.361293	crimson	-0.05497701
-4.060263	crisis	-0.008155423
-4.361293	crisp	-0.05501482
-4.361293	criss-cross	-0.05501482
-4.361293	crisscrossed	-0.0374837
-4.060263	critical	-0.05495812
-3.884172	crooked	-0.05495812
-4.361293	crops	-0.04788727
-4.361293	crossed	-0.0374837
-4.361293	crossings	-0.008344873
-4.361293	crossroads	-0.008344873
-4.361293	crowd	-0.008344873
-4.361293	crown	-0.04788727
-4.361293	crucial	-0.008344873
-4.361293	crucified	-0.05355692
-4.361293	crude	-0.05499592
-4.361293	crudely	-0.05501482
-4.361293	cruel	-0.05501482
-4.361293	cruelty	-0.008344873
-4.361293	crunched	-0.05342414
-4.361293	crushed	-0.05501482
-4.361293	crushers	-0.008344873
-4.060263	cry	-0.1951366
-4.361293	crystalline	-0.05501482
-4.361293	crystallizing	-0.008344873
-4.361293	cubic	-0.05499592
-4.361293	cuisine	-0.04997666
-4.361293	cultivated	-0.05501482
-4.060263	cultural	-0.05471229
-4.361293	cultures	-0.05418233
-4.361293	cupcakes	-0.04788727
-4.361293	cups	-0.008344873
-4.361293	cure	-0.008344873
-4.060263	cured	-0.05272163
-3.583142	curiosity	-0.1076257
-4.361293	curious	-0.05456093
-4.060263	curiously	-0.05492031
-4.361293	curly	-0.05488249
-4.361293	current	-0.008344873
-4.361293	curry	-0.008344873
-4.361293	curve	-0.05493921
-4.060263	curves	-0.05317745
-4.361293	custody	-0.05186569
-4.361293	customer	-0.05501482
-4.361293	customers	-0.008344873
-3.458203	cut	-0.0640108
-4.361293	cutbacks	-0.05499592
-4.361293	cuts	-0.04788727
-4.060263	cutting	-0.05386027
-4.361293	cyclical	-0.05497701
-4.361293	cynics	-0.04719498
-4.060263	dad	-0.05321541
-4.060263	daily	-0.05473121
-4.060263	damage	-0.04646305
-4.361293	damaged	-0.008344873
-4.361293	damp	-0.05499592
-4.361293	dance	-0.04788727
-4.361293	dancers	-0.008344873
-4.060263	dances	-0.05492031
-4.361293	danger	-0.04923023
-4.361293	dangerous	-0.05499592
-4.361293	dangers	-0.05329132
-4.361293	danny	-0.05488249
-4.361293	daphne's	-0.05501482
-3.407051	dark	-0.05403081
-4.060263	darkness	-0.008134367
-4.361293	darned	-0.05501482
-4.361293	dash	-0.0472912
-3.458203	data	-0.1315598
-4.060263	date	0.01124258
-4.060263	davy	-0.008323836
-4.361293	dawn	-0.04923023
-3.157173	day	-0.3388462
-4.361293	daydreamed	-0.0526076
-3.583142	days	-0.1152771
-4.361293	daytime	-0.05493921
-3.884172	dead	-0.008260681
-4.361293	deadline	-0.05497701
-3.516195	deal	-0.08728831
-4.361293	dealers	-0.0532154
-4.361293	deans	-0.0540308
-4.361293	dear	-0.05308252
-3.583142	death	-0.1103266
-4.361293	debts	-0.05480685
-4.361293	debut	-0.0546177
-4.361293	decadent	-0.05501482
-4.361293	decaying	-0.05501482
-4.361293	decays	-0.05499592
-4.361293	deceitful	-0.05501482
-4.361293	december	-0.04788727
-3.884172	decide	-0.0303202
-4.060263	decided	0.01124258
-4.361293	decides	-0.04719498
-4.361293	decisions	-0.008344873
-4.361293	decisive	-0.008344873
-4.361293	deck	-0.008344873
-4.361293	decking	-0.04997666
-4.361293	declared	-0.008344873
-4.361293	declining	-0.05501482
-4.361293	decorate	-0.05440953
-4.361293	decorated	-0.008344873
-4.361293	decorative	-0.05501482
-4.361293	decorator	-0.05418233
-4.060263	decrease	-0.03580761
-4.361293	deduct	-0.05501482
-4.361293	deductible	-0.05493921
-4.361293	deed	-0.05490139
-3.662323	deep	-0.05457986
-4.361293	deeper	-0.05463662
-4.060263	deeply	-0.05486359
-4.361293	deer	-0.05342414
-4.361293	defects	-0.0532154
-4.060263	defend	-0.2414851
-4.361293	defended	-0.05108436
-4.060263	defense	-0.008071193
-4.361293	defensive	-0.05495811
-4.361293	defiantly	-0.008344873
-4.361293	define	-0.05108436
-4.361293	definite	-0.008344873
-4.361293	definitely	-0.05440953
-3.759233	degree	-0.08310173
-4.361293	degrees	-0.008344873
-4.361293	delegated	-0.05499592
-4.361293	delete	-0.05499592
-4.361293	delicate	-0.05497701
-4.361293	delicious	-0.008344873
-4.361293	delight	-0.0374837
-4.361293	delightful	-0.04923023
-4.361293	delineating	-0.05439061
-4.361293	delivering	-0.0374837
-4.361293	demand	-0.05197991
-4.361293	demanded	-0.008344873
-4.361293	demands	-0.0472912
-4.361293	demineralization	-0.008344873
-4.361293	demonstration	-0.05275963
-4.361293	dense	-0.05201798
-4.361293	density	-0.05501482
-4.361293	denunciation	-0.05463662
-4.060263	deny	-0.05104622
-4.361293	departments	-0.008344873
-4.361293	departure	-0.05501482
-4.361293	depend	-0.0549203
-4.361293	depicts	-0.0374837
-4.361293	depletion	-0.008344873
-4.361293	depreciation	-0.04788727
-4.361293	deprive	-0.05108436
-4.361293	deputy	-0.05501482
-4.361293	dereliction	-0.008344873
-4.361293	derived	-0.05342414
-4.361293	deriving	-0.05230338
-4.361293	describe	-0.0374837
-4.361293	described	-0.05266462
-4.361293	desegregate	-0.008344873
-4.361293	desegregation	-0.0549203
-4.361293	deserves	-0.0437169
-3.884172	design	-0.04993841
-4.361293	designer	-0.008344873
-4.060263	desirable	-0.05192281
-4.361293	desire	-0.04788727
-4.361293	desires	-0.05201798
-3.884172	desk	-0.007101353
-4.361293	desolation	-0.008344873
-4.361293	despair	-0.0532154
-4.361293	desperately	-0.05475011
-4.361293	despised	-0.05501482
-4.361293	despite	-0.0374837
-4.060263	dessert	-0.1951366
-4.361293	desserts	-0.05497701
-4.361293	destiny	-0.04997666
-3.759233	destroy	-0.05456094
-4.361293	destroying	-0.05346208
-3.884172	detail	-0.2620303
-4.060263	detailed	-0.05476904
-4.361293	details	-0.008344873
-4.361293	detectable	-0.04923023
-4.361293	detective's	-0.05501482
-4.361293	determination	-0.008344873
-4.361293	determine	-0.05499592
-4.361293	determined	-0.04719498
-4.361293	detract	-0.05376549
-3.884172	develop	-0.05427702
-4.361293	developed	-0.05486358
-4.361293	developing	-0.05495811
-3.662323	development	0.004015273
-4.361293	device	-0.05501482
-4.361293	devour	-0.05444739
-4.361293	dew	-0.0526076
-4.361293	diagnosed	-0.05325336
-4.060263	diagnosis	-0.05028252
-4.361293	diagonally	-0.05404975
-4.361293	diagram	-0.05490139
-4.361293	diane	-0.05420127
-4.361293	diarrhoea	-0.008344873
-4.361293	dice	-0.008344873
-4.361293	dictators	-0.008344873
-4.361293	dictionary	-0.04997666
-2.748509	did	-0.1521796
-3.060263	didn't	-0.07513452
-3.516195	die	0.01089045
-3.759233	died	-0.004030027
-4.361293	diet	-0.008344873
-4.361293	differ	-0.05376549
-4.361293	difference	-0.05275963
-4.361293	differences	-0.0532154
-3.884172	different	-0.05484467
-4.361293	differentiate	-0.0437169
-4.361293	differently	-0.008344873
-3.884172	difficult	-0.0470795
-4.060263	dig	-0.04825221
-4.060263	dignity	-0.001877789
-4.060263	dim	-0.008323836
-4.060263	dime	-0.006932473
-4.361293	dimensions	-0.0472912
-4.361293	dimes	-0.04788727
-4.361293	diminish	-0.04719498
-4.361293	diminishing	-0.05501482
-4.361293	dingo	-0.0549203
-3.662323	dinner	-0.2974926
-4.361293	diploma	-0.008344873
-4.060263	direction	-0.0003798511
-4.361293	directions	-0.008344873
-4.361293	director	-0.008344873
-4.361293	directory	-0.04997666
-4.361293	dirt	-0.05499592
-3.884172	dirty	-0.05484467
-4.060263	disappeared	-0.008071193
-4.361293	disappointed	-0.0374837
-4.361293	disapproval	-0.008344873
-4.361293	disapproves	-0.0472912
-4.361293	disaster	-0.008344873
-4.361293	discard	-0.05355692
-4.361293	discipline	-0.05418233
-4.361293	disciplined	-0.008344873
-4.361293	disclaimer	-0.008344873
-4.361293	discount	-0.05495811
-4.361293	discouraged	-0.0547312
-4.361293	discouraging	-0.05482576
-4.361293	discovered	-0.008344873
-4.361293	discretionary	-0.05497701
-4.361293	discussion	-0.0540308
-4.060263	discussions	-0.04694473
-4.361293	disease	-0.008344873
-4.361293	diseases	-0.008344873
-4.361293	disguise	-0.008344873
-4.361293	disgusting	-0.0374837
-4.060263	dish	-0.1951366
-4.060263	dishes	-0.007818402
-4.361293	disk	-0.008344873
-4.361293	disliked	-0.05501482
-4.361293	dislikes	-0.05501482
-4.060263	disobeyed	-0.2242754
-4.361293	dispel	-0.05499592
-4.361293	dispensing	-0.05501482
-4.361293	dispersed	-0.05497701
-4.361293	displacement	-0.0472912
-3.884172	display	-0.03815233
-4.361293	displayed	-0.05266462
-4.060263	dispute	-0.008323836
-4.361293	disputes	-0.05501482
-4.361293	disregarding	-0.05406869
-4.361293	disrepair	-0.008344873
-4.361293	dissolve	-0.008344873
-4.361293	distance	-0.008344873
-4.361293	distances	-0.04719498
-4.361293	distaste	-0.008344873
-4.361293	distinct	-0.05499592
-4.361293	distinguished	-0.0547312
-4.361293	distorted	-0.04788727
-4.361293	distracted	-0.05355692
-4.361293	distress	-0.04788727
-4.361293	distributed	-0.008344873
-4.361293	districts	-0.008344873
-4.361293	disturb	-0.05327234
-4.361293	ditches	-0.008344873
-4.060263	dive	-0.008092252
-4.060263	diversity	-0.2340829
-4.361293	divided	-0.05497701
-4.361293	divinities	-0.04719498
-4.361293	division	-0.0472912
-4.361293	divorce	-0.05501482
-4.060263	divorced	-0.05350003
-4.361293	divorcee	-0.05342414
-2.620931	do	-0.2039357
-3.884172	doctor	-0.1200849
-4.060263	doctors	-0.008323836
-3.884172	doctrine	-0.1662729
-4.060263	documented	-0.001877789
-4.361293	documents	-0.05459878
-4.361293	dodging	-0.05431488
-3.157173	does	-0.213943
-4.060263	does:	-0.05499593
-3.662323	doesn't	-0.05467446
-3.583142	dog	-0.1108865
-4.361293	dogmatically	-0.008344873
-3.662323	dogs	-0.04410474
-4.361293	doin'	-0.05108436
-4.060263	doing	-0.007249083
-4.060263	doll	-0.008323836
-4.361293	dollar-and-cents	-0.05501482
-4.060263	dollars	-0.03638018
-4.361293	dollars-and-cents	-0.05499592
-4.361293	dolphins	-0.05201798
-4.361293	dome	-0.0549203
-4.361293	domestic	-0.05499592
-4.361293	dominant	-0.05499592
-4.361293	dominated	-0.05342414
-2.929929	don't	-0.05107579
-4.361293	donate	-0.05486358
-4.361293	donated	-0.05406869
-3.516195	done	-0.08944771
-3.662323	door	-0.07367304
-4.361293	doors	-0.0532154
-4.361293	doorways	-0.008344873
-4.361293	dormitories	-0.008344873
-4.361293	doses	-0.04997666
-4.361293	double	-0.05501482
-4.361293	double-glaze	-0.04719498
-4.361293	doubt	-0.05275963
-4.361293	dough	-0.04719498
-4.361293	doused	-0.0374837
-2.884172	down	-0.04204527
-4.361293	downpour	-0.008344873
-4.361293	downstairs	-0.05501482
-4.361293	downtown	-0.008344873
-4.060263	downward	-0.0003798511
-4.361293	dozen	-0.05501482
-4.361293	drain	-0.05439061
-3.884172	dramatic	-0.008218578
-4.361293	drank	-0.05501482
-4.361293	drastically	-0.05497701
-3.884172	draw	-0.0541634
-4.361293	drawing	-0.0374837
-4.361293	drawled	-0.008344873
-4.361293	drawn	-0.05342414
-4.060263	dream	-0.008260689
-4.060263	dreams	0.0002851753
-4.361293	drenched	-0.05376549
-4.361293	dress	-0.0549203
-4.361293	dressing	-0.008344873
-4.060263	dressy	-0.05302556
-4.060263	drew	-0.04360049
-4.361293	dried	-0.05499592
-4.361293	drift	-0.04997666
-4.361293	drifted	-0.04923023
-4.361293	drifting	-0.04997666
-4.060263	drink	-0.008323836
-4.361293	drinkers	-0.008344873
-4.060263	drive	-0.05138944
-3.884172	driven	-0.1230662
-4.361293	drivers	-0.04788727
-4.361293	driving	-0.05499592
-4.060263	drop	-0.05490141
-4.361293	dropped	-0.05497701
-4.060263	drops	-0.03221683
-4.361293	drought	-0.008344873
-3.759233	drove	-0.04586501
-4.060263	drug	-0.002710118
-4.060263	drug's	-0.2417687
-4.060263	drugs	-0.04880862
-4.361293	drugstore	-0.05190376
-4.361293	drunk	-0.04923023
-4.361293	drunkard	-0.04997666
-4.361293	drunkards	-0.05308252
-4.361293	drunkenness	-0.05190376
-3.662323	dry	-0.05270263
-4.361293	drying	-0.05501482
-4.361293	dubious	-0.05501482
-4.361293	duck	-0.05186569
-4.361293	ducks	-0.05368965
-4.060263	due	-0.2339867
-4.361293	dug	-0.04923023
-4.361293	dull	-0.05499592
-4.060263	dumb	-0.008323836
-4.361293	dumped	-0.05355692
-4.361293	duplicate	-0.05495811
-3.884172	during	-0.05035894
-4.060263	dust	-0.05323439
-4.361293	dusting	-0.05493921
-4.361293	dutch	-0.05499592
-4.361293	duty	-0.05463662
-4.060263	dwarf	-0.006826885
-4.361293	dwell	-0.0526076
-4.361293	dyeing	-0.05306353
-4.361293	dying	-0.0526076
-4.361293	dynamics	-0.0472912
-4.361293	dynastic	-0.05501482
-2.981082	each	-0.06440865
-4.361293	eagerly	-0.008344873
-4.060263	eagerness	-0.04717575
-4.060263	ear	-0.04786807
-3.884172	earlier	-0.05475011
-3.662323	early	-0.03551115
-4.361293	earn	-0.05427701
-4.361293	earnestly	-0.05501482
-4.361293	ears	-0.008344873
-3.884172	earth	-0.006044727
-4.361293	earth's	-0.0374837
-4.361293	earthenware	-0.05499592
-4.361293	earthly	-0.05499592
-4.361293	earthquake	-0.008344873
-4.060263	ease	-0.001877789
-4.361293	eased	-0.05342414
-3.759233	easier	0.0004784443
-4.060263	easily	-0.05469338
-4.361293	eastern	-0.05501482
-3.583142	easy	-0.04948448
-4.361293	easygoing	-0.05501482
-3.407051	eat	0.01589104
-4.361293	eaten	-0.05495811
-3.759233	eating	-0.008239632
-4.361293	eccentricity	-0.04719498
-4.361293	echo	-0.0472912
-3.759233	economic	-0.04763741
-4.361293	economically	-0.008344873
-4.060263	economy	-0.04827141
-4.361293	ecumenical	-0.04788727
-3.759233	edge	-0.07806995
-4.361293	edges	-0.008344873
-4.361293	edgy	-0.05501482
-4.060263	education	-0.1951366
-4.060263	educational	-0.05497703
-4.361293	effect	-0.008344873
-4.060263	effective	-0.05486359
-3.884172	effects	-0.1205515
-4.361293	efficiency	-0.04997666
-4.361293	efficient	-0.04788727
-3.884172	effort	0.003842077
-4.361293	egg-sized	-0.05497701
-3.884172	eggs	-0.04348404
-4.361293	ego	-0.008344873
-4.361293	egotist	-0.008344873
-3.662323	eight	-0.001621362
-4.361293	eighteenth	-0.05501482
-3.407051	either	0.007559313
-4.361293	elaborately	-0.05501482
-4.361293	elbowing	-0.04788727
-4.361293	elderly	-0.0547312
-4.361293	election	-0.0526076
-3.884172	electric	-0.05497702
-4.060263	electrical	-0.05482577
-4.361293	electricity	-0.04788727
-4.060263	electron	-0.05497703
-4.060263	electronic	-0.05499593
-4.361293	electrostatic	-0.05395501
-4.361293	elegant	-0.008344873
-4.361293	element	-0.04997666
-4.361293	elementary-school	-0.05490139
-4.060263	elements	-0.04688696
-4.361293	elevator	-0.04788727
-4.361293	eleven	-0.05501482
-4.361293	ellipsoids	-0.0374837
-4.060263	elm	-0.05497703
-4.361293	elongation	-0.05418233
-3.319901	else	-0.1147629
-4.361293	elsewhere	-0.008344873
-4.361293	embankment	-0.05306353
-4.361293	emblem	-0.05501482
-4.361293	embodiment	-0.0472912
-4.361293	embracing	-0.05465553
-4.361293	emerge	-0.05501482
-4.361293	emergency	-0.05499592
-4.361293	emotion	-0.008344873
-4.361293	emotional	-0.05501482
-4.361293	emotionally	-0.05264561
-4.361293	emotions	-0.008344873
-4.060263	emperor	-0.05353796
-4.361293	emphasis	-0.0526076
-4.361293	emphasize	-0.0374837
-3.884172	emphasized	-0.1526907
-4.361293	emphysema	-0.05501482
-4.361293	empirical	-0.05488249
-4.060263	employee	-0.05495812
-4.060263	employees	-0.005642541
-4.361293	employment	-0.008344873
-4.060263	empty	-0.05493922
-4.361293	enabling	-0.05497701
-4.361293	enact	-0.05327234
-4.361293	enamel	-0.008344873
-4.361293	encamped	-0.05490139
-4.361293	enclosed	-0.04923023
-4.361293	encountered	-0.05501482
-4.060263	encourage	-0.05291162
-4.361293	encouraged	-0.05327234
-4.361293	encyclopedias	-0.05495811
-4.361293	end	-0.0472912
-4.361293	endeavored	-0.04719498
-4.361293	ended	-0.05499592
-4.361293	endosperm	-0.0472912
-4.361293	ends	-0.04788727
-4.060263	endurance	-0.1951366
-3.583142	enemy	-0.04807938
-4.060263	energy	-0.04917277
-4.361293	engine	-0.05501482
-4.361293	engineer	-0.008344873
-4.060263	engineering	-0.05497703
-4.361293	engineers'	-0.05501482
-4.361293	engulfed	-0.05342414
-4.361293	enigma	-0.008344873
-3.759233	enjoy	-0.04819461
-4.361293	enjoyed	-0.05501482
-4.361293	enlightenment	-0.008344873
-4.361293	enlisted	-0.0437169
-4.361293	enormous	-0.008344873
-3.08254	enough	-0.1225867
-4.361293	enrich	-0.05420127
-4.361293	ensue	-0.05439061
-4.060263	enter	-0.05457987
-4.361293	entertaining	-0.05501482
-4.361293	enthusiastic	-0.05230338
-3.759233	entire	-0.05488249
-4.060263	entirely	-0.05454202
-4.361293	entitle	-0.05355692
-4.361293	entity	-0.0546177
-4.361293	entries	-0.05501482
-4.361293	entropy	-0.008344873
-4.361293	entry	-0.05431488
-4.361293	envelope	-0.05497701
-4.060263	environment	-0.004943108
-4.361293	environments	-0.008344873
-4.361293	enzyme	-0.05499592
-4.361293	ephemeral	-0.008344873
-4.361293	epidemic	-0.05501482
-4.361293	episode	-0.04997666
-4.361293	equal	-0.04719498
-4.361293	equally	-0.05495811
-4.361293	equation	-0.008344873
-3.884172	equipment	-0.00481581
-4.361293	equipment:	-0.05499592
-4.361293	equipped	-0.04719498
-4.361293	equivalent	-0.05486358
-4.361293	era	-0.008344873
-4.361293	erect	-0.008344873
-4.361293	erotic	-0.05501482
-4.361293	errors	-0.008344873
-4.361293	eruption	-0.008344873
-4.361293	escalator	-0.008344873
-4.361293	escape	-0.05420127
-4.361293	esoteric	-0.05497701
-3.884172	especially	-0.03724746
-4.060263	essay	-0.04995754
-4.060263	essential	-0.006361992
-4.060263	essentially	-0.05492031
-4.361293	establish	-0.05332927
-4.361293	establishment	-0.008344873
-4.361293	estimate	-0.0472912
-4.361293	estimates	-0.008344873
-4.361293	etc	-0.008344873
-4.361293	eternal	-0.0549203
-4.361293	eternity	-0.04997666
-4.361293	etiquette	-0.05501482
-4.361293	evacuate	-0.008344873
-4.361293	evaluate	-0.05230338
-4.361293	evaluated	-0.05342414
-4.361293	evaluation	-0.008344873
-4.361293	evasive	-0.05495811
-3.060263	even	-0.02883708
-3.662323	evening	-0.3054366
-4.060263	evenly	-0.008008008
-3.662323	events	-0.04449223
-4.361293	eventualities	-0.05201798
-4.060263	eventually	-0.05228436
-3.361293	ever	-0.005324746
-4.361293	ever-increasing	-0.05499592
-3.060263	every	-0.053519
-4.060263	everybody	-0.04917277
-3.884172	everyone	-0.1651842
-3.759233	everything	-0.04478261
-3.662323	evidence	-0.00300851
-4.361293	evident	-0.05397396
-4.361293	evocative	-0.05501482
-4.361293	evolve	-0.008344873
-4.361293	exacerbated	-0.05501482
-4.361293	exacerbations	-0.05493921
-4.361293	exactly	-0.05495811
-4.361293	exaggerated	-0.008344873
-4.361293	exam	-0.05501482
-4.361293	examination	-0.0472912
-4.060263	examined	-0.2387716
-3.759233	example	-0.07900295
-4.060263	examples	-0.1951366
-4.361293	exboyfriend	-0.05493921
-3.884172	excellent	-0.05493921
-3.884172	except	-0.1664446
-4.060263	exception	-0.0491153
-3.884172	excess	-0.308549
-4.361293	exchange	-0.04923023
-4.361293	exchanged	-0.05501482
-4.361293	excited	-0.04788727
-4.361293	excitement	-0.008344873
-4.361293	exciting	-0.05497701
-4.361293	exclaiming	-0.008344873
-4.361293	excluded	-0.008344873
-4.060263	exclusive	-0.05497703
-4.060263	execute	-0.04930686
-4.361293	execution	-0.0472912
-4.361293	executive	-0.05501482
-3.884172	exercise	-0.007502199
-4.361293	exercises	-0.05201798
-4.361293	exhibited	-0.05499592
-4.361293	exhibits	-0.05495811
-4.361293	exhusband	-0.008344873
-3.884172	exist	0.0008007421
-3.759233	existed	-0.08496571
-3.884172	existence	-0.1179368
-4.060263	existing	-0.05497703
-4.060263	exists	-0.0003798511
-4.361293	exotic	-0.05501482
-4.060263	expect	-0.03746403
-4.361293	expectations	-0.008344873
-3.884172	expected	0.0005214047
-4.361293	expecting	-0.0437169
-4.361293	expects	-0.04719498
-4.060263	expense	-0.04725273
-4.060263	expensive	-0.05497703
-3.458203	experience	-0.07957086
-4.060263	experienced	-0.0003798511
-4.361293	experiment	-0.05476902
-4.361293	experiment's	-0.05497701
-4.060263	experimental	-0.05495812
-4.361293	experiments	-0.008344873
-4.361293	expertise	-0.008344873
-4.361293	expertly	-0.05488249
-3.759233	experts	-0.08071189
-4.361293	explain	-0.05397396
-4.060263	explains	-0.05167526
-4.361293	explanation	-0.04997666
-4.361293	explicitly	-0.05501482
-4.361293	exploring	-0.05291161
-4.060263	explosion	-0.05393608
-4.361293	export	-0.05499592
-4.361293	exposed	-0.04719498
-4.060263	exposure	-0.2339867
-4.060263	expression	-0.001877789
-4.361293	expressway	-0.05499592
-4.361293	exquisite	-0.008344873
-4.060263	extended	-0.05374654
-4.361293	extending	-0.05501482
-4.060263	extensive	-0.05499593
-3.884172	extent	-0.0523224
-3.662323	extra	-0.05427702
-4.361293	extraordinary	-0.05501482
-4.361293	extremely	-0.05501482
-4.361293	exultantly	-0.0549203
-3.759233	eye	-0.001749591
-4.361293	eyebrow	-0.05501482
-4.361293	eyedrops	-0.05329132
-4.361293	eyelids	-0.05501482
-3.130844	eyes	-0.02913886
-4.361293	eyestrain	-0.008344873
-4.361293	fabric	-0.0437169
-4.361293	fabrics	-0.008344873
-3.215165	face	-0.07723455
-4.060263	faces	-0.1951366
-3.662323	fact	-0.004773375
-4.361293	factions	-0.05501482
-4.060263	factors	-0.05495812
-4.060263	facts	-0.1951366
-3.884172	faculty	-0.1235505
-4.361293	faded	-0.008344873
-4.060263	fail	-0.00570607
-4.361293	failed	-0.04719498
-4.060263	fails	-0.04692547
-4.060263	failure	-0.2339867
-4.361293	faint	-0.05501482
-3.884172	fair	-0.008134359
-4.361293	fairly	-0.05499592
-4.361293	fairy	-0.05499592
-4.060263	faith	-0.05336723
-3.759233	fall	-0.005854262
-4.361293	fallen	-0.05431488
-4.060263	fallout	-0.05499593
-4.361293	falls	-0.04788727
-4.361293	false	-0.05490139
-4.361293	falters	-0.05306353
-4.361293	fame	-0.05467445
-4.361293	familiar	-0.05497701
-4.361293	familiarity	-0.05401186
-3.516195	family	-0.004433714
-3.884172	famous	-0.05495812
-4.361293	fan	-0.008344873
-4.361293	fancier	-0.05463662
-4.060263	fancy	-0.008323836
-4.361293	fangs	-0.008344873
-3.458203	far	-0.0624662
-3.662323	farm	-0.001706853
-4.361293	farmer's	-0.05475011
-4.060263	farmers	-0.05495812
-4.361293	farmhouses	-0.05499592
-4.361293	farmland	-0.04788727
-4.361293	farmyard	-0.008344873
-4.361293	farther	-0.008344873
-4.361293	fasciculations	-0.05306353
-4.361293	fascinating	-0.05493921
-4.361293	fashion	-0.05230338
-4.361293	fashioned	-0.008344873
-4.060263	fast	-0.0003798511
-4.361293	fast-closing	-0.0549203
-4.361293	fast-opening	-0.0549203
-4.361293	faster	-0.008344873
-4.060263	fat	-0.05448525
-4.060263	father	-0.008197532
-4.060263	father's	-0.05459879
-4.361293	fathers	-0.05501482
-4.060263	fatigue	-0.04786807
-4.361293	fatigued	-0.05478794
-4.361293	fatigues	-0.04788727
-4.060263	fault	-0.1951366
-4.361293	faults	-0.05264561
-4.060263	favor	0.0002851753
-4.361293	favorable	-0.05486358
-4.361293	favorite	-0.05501482
-4.361293	fawn	-0.008344873
-4.060263	fear	0.0002851753
-4.361293	feared	-0.008344873
-4.361293	fearful	-0.04788727
-4.060263	fears	-0.04684843
-4.361293	feasible	-0.008344873
-4.361293	feast	-0.05425808
-4.361293	feather	-0.04923023
-4.361293	feathers	-0.008344873
-3.884172	features	-0.04019118
-3.884172	feed	-0.008239631
-3.458203	feel	-0.04999578
-4.060263	feeling	-0.05478795
-4.060263	feelings	-0.04667505
-4.361293	feels	-0.05275963
-3.215165	feet	-0.08934234
-3.583142	fell	0.002157011
-4.361293	fella	-0.008344873
-4.361293	fellowship	-0.008344873
-3.282112	felt	-0.06659492
-4.060263	female	-0.05492031
-4.361293	fenced	-0.05306353
-4.361293	fences	-0.04788727
-4.060263	fermented	-0.05372759
-4.361293	ferries	-0.05201798
-4.361293	fertilizers	-0.04788727
-4.060263	fever	-0.1951366
-4.361293	feverishly	-0.008344873
-3.319901	few	-0.02513047
-4.361293	fewer	-0.05501482
-4.361293	fibers	-0.008344873
-4.361293	fibrosis	-0.04788727
-4.361293	fiction	-0.008344873
-4.361293	fiddles	-0.05501482
-3.884172	field	-0.04667505
-4.361293	fields	-0.008344873
-4.361293	fieldwork	-0.008344873
-4.361293	fiercely	-0.008344873
-4.361293	fiercest	-0.0472912
-4.361293	fiery	-0.05499592
-4.060263	fifteen	-0.05467446
-4.361293	fifth	-0.05499592
-4.060263	fifty	-0.008050132
-4.361293	fight	-0.0536707
-4.361293	fights	-0.05499592
-3.884172	figure	-0.04732969
-4.361293	figured	-0.05283562
-4.060263	figures	-0.05098899
-4.060263	file	-0.04709876
-4.060263	files	-0.008260689
-3.759233	fill	-0.02875677
-4.361293	filling	-0.05291161
-3.759233	film	-0.09114287
-4.060263	films	0.0002851753
-4.361293	filtered	-0.05490139
-4.361293	filtering	-0.05469337
-3.884172	final	-0.05480685
-3.884172	finally	-0.04834818
-4.361293	financing	-0.05201798
-3.662323	find	-0.03864332
-4.361293	finding	-0.05501482
-4.060263	finds	-0.03966279
-3.759233	fine	-0.007881607
-4.361293	fine-feathered	-0.05499592
-4.361293	finger	-0.05386026
-4.361293	fingerprints	-0.008344873
-3.884172	fingers	-0.008071185
-3.884172	finish	-0.007143565
-4.361293	finishing	-0.05499592
-3.583142	fire	-0.0007655144
-4.361293	firebug	-0.05499592
-4.361293	firecrackers	-0.008344873
-4.361293	fireplace	-0.008344873
-4.361293	fires	-0.05201798
-4.060263	firing	-0.05197992
-4.361293	firmly	-0.05501482
-4.361293	firmness:	-0.05332927
-4.361293	firms	-0.05201798
-3.157173	first	-0.1416113
-4.361293	fiscal	-0.05497701
-4.361293	fish	-0.05484467
-4.361293	fishermen	-0.05471228
-4.060263	fishing	-0.04921109
-4.060263	fist	-0.005642541
-4.361293	fists	-0.05501482
-4.361293	fit	-0.05499592
-4.361293	fitfully	-0.05275963
-3.583142	five	-0.04765663
-4.361293	five-hundred	-0.05501482
-4.361293	fix	-0.05439061
-4.060263	fixed	-0.008155423
-4.361293	fjords	-0.05469337
-4.060263	flag	-0.05499593
-3.884172	flame	-0.05391712
-3.884172	flash	-0.007944808
-4.361293	flashing	-0.008344873
-4.060263	flat	-0.05493922
-4.361293	flat-bottomed	-0.05499592
-4.361293	flawless	-0.008344873
-4.361293	flaxseed	-0.05501482
-4.361293	fled	-0.05329132
-4.361293	fleecy	-0.05501482
-4.361293	flesh	-0.008344873
-3.884172	flew	-0.04807938
-4.361293	flexibility	-0.05266462
-4.361293	flexible	-0.05482576
-4.361293	flickered	-0.008344873
-4.361293	flies	-0.05501482
-4.361293	flimsy	-0.008344873
-4.361293	flip	-0.0437169
-4.361293	float	-0.04923023
-4.361293	floc	-0.008344873
-4.060263	flood	-0.006150512
-3.662323	floor	-0.1422582
-4.361293	floorboards	-0.0437169
-4.361293	flopped	-0.05457986
-4.361293	flourish	-0.05501482
-4.361293	flourishes	-0.008344873
-4.060263	flow	-0.04917277
-4.060263	flower	-0.008281738
-4.361293	flowerpot	-0.008344873
-4.060263	flowers	-0.005324756
-4.361293	flu	-0.05404975
-4.361293	fluent	-0.008344873
-4.060263	fluid	-0.05497703
-4.361293	flurries	-0.008344873
-4.361293	fluttered	-0.008344873
-4.361293	flying	-0.05501482
-4.060263	foam	-0.05262661
-4.361293	foamy	-0.05501482
-4.361293	focus	-0.05346208
-4.361293	fog	-0.05499592
-3.884172	foil	0.002394248
-4.361293	fold	-0.05431488
-4.361293	folded	-0.05501482
-4.361293	folds	-0.0472912
-4.060263	follow	-0.007818402
-3.583142	followed	-0.1473773
-3.884172	following	-0.152612
-4.060263	follows	-0.007396756
-4.361293	follows:	-0.05459878
-4.060263	food	-0.004858252
-4.361293	foods	-0.008344873
-3.884172	fool	-0.04042582
-4.361293	fooling	-0.05484467
-3.884172	foolish	-0.006805757
-4.361293	fools	-0.04923023
-3.884172	foot	-0.001856419
-4.361293	football	-0.05499592
-4.361293	footfall	-0.008344873
-4.361293	footnotes	-0.008344873
-2.154467	for	-0.05667103
-4.361293	forbidden	-0.04788727
-4.060263	force	0.0003925329
-4.060263	forced	-0.04684844
-3.458203	forces	-0.1240673
-4.361293	forecasts	-0.05501482
-4.361293	forehead	-0.04788727
-4.060263	foreign	-0.05492031
-4.361293	foreigners	-0.008344873
-4.060263	forest	-0.004858252
-4.361293	forever	-0.008344873
-4.361293	forged	-0.05186569
-4.361293	forgery	-0.008344873
-3.759233	forget	-0.05060725
-4.361293	forgiveness	-0.008344873
-4.060263	forgot	0.0003925329
-3.662323	form	0.01433602
-4.361293	formality	-0.05178952
-4.361293	formation	-0.0472912
-4.361293	formed	-0.05499592
-4.361293	former	-0.05501482
-4.060263	forms	-0.001877789
-3.884172	formula	0.00289072
-4.361293	formulation	-0.04923023
-4.060263	forth	-0.05249355
-4.361293	fortune	-0.05501482
-4.361293	forty-seven	-0.05499592
-3.884172	forward	-0.00181369
-4.361293	fosters	-0.05490139
-4.361293	fought	-0.0374837
-4.060263	foul	-0.006150512
-3.361293	found	-0.05067702
-3.759233	four	-0.05456094
-4.060263	frame	-0.05196088
-4.060263	framework	-0.04815621
-4.361293	frankfurter	-0.05501482
-4.361293	frankfurters	-0.008344873
-4.361293	frantically	-0.0526076
-4.361293	freed	-0.05376549
-4.361293	freedom	-0.0472912
-3.884172	freely	-0.1235295
-4.361293	freethinkers	-0.05201798
-4.361293	freeway	-0.05488249
-4.361293	frequent	-0.05501482
-3.759233	frequently	-0.004667259
-3.662323	fresh	-0.05465554
-4.361293	friend	-0.05501482
-4.060263	friends	-0.0003798511
-4.361293	frightened	-0.05490139
-4.361293	fringe	-0.0472912
-4.361293	frivolous	-0.05488249
-2.535218	from	-0.1377772
-3.759233	front	-0.1748135
-4.361293	frost	-0.008344873
-4.361293	frostbite	-0.008344873
-4.361293	frowningly	-0.05342414
-4.361293	froze	-0.05488249
-3.759233	fruit	-0.04665578
-4.361293	frustration	-0.05501482
-4.361293	fudge	-0.0549203
-4.060263	fulfilling	-0.04272637
-4.361293	fulfillment	-0.008344873
-3.759233	full	-0.1306633
-4.361293	fullness	-0.05499592
-4.361293	fully	-0.05197991
-4.361293	fumbled	-0.05486358
-4.361293	fuming	-0.05501482
-4.361293	fun	-0.04719498
-4.361293	function	-0.05497701
-3.884172	functional	-0.05486358
-4.361293	fund	-0.05501482
-4.361293	funding	-0.05497701
-4.361293	funds	-0.04719498
-4.361293	fungicides	-0.05201798
-4.361293	funnel	-0.008344873
-4.361293	funny	-0.05471228
-4.361293	fur	-0.05493921
-4.361293	furiously	-0.05186569
-4.361293	furnish	-0.05499592
-4.361293	furrier	-0.05463662
-3.662323	further	-0.04740664
-4.060263	fuss	-0.05469338
-4.361293	future	-0.05486358
-4.361293	gab	-0.05501482
-4.361293	gadfly	-0.05437167
-4.361293	gadget	-0.008344873
-4.060263	gag	-0.008323836
-4.361293	gain	-0.05493921
-4.060263	gained	-0.05490141
-4.361293	gait	-0.04997666
-4.361293	gallant	-0.05501482
-4.060263	gallon	-0.04569124
-4.361293	galoshes	-0.05201798
-4.361293	galvanic	-0.0536707
-4.060263	game	-0.005981255
-4.361293	gang	-0.05404975
-4.361293	gangplank	-0.05486358
-4.060263	garage	-0.008239637
-3.884172	garbage	-0.008302781
-3.884172	garden	-0.1231504
-4.361293	gardens	-0.04997666
-4.361293	garlic	-0.04923023
-4.361293	garrisoned	-0.008344873
-3.407051	gas	-0.04323151
-4.361293	gashes	-0.0526076
-4.361293	gassing	-0.0549203
-4.060263	gates	-0.1951366
-4.361293	gateway	-0.008344873
-4.361293	gathered	-0.0547312
-4.060263	gathering	0.0002851753
-4.361293	gaudy	-0.008344873
-3.282112	gave	-0.04474987
-4.361293	gay	-0.008344873
-4.361293	gazed	-0.05465553
-4.361293	gear	-0.008344873
-4.361293	geeing	-0.04788727
-4.361293	geese	-0.008344873
-3.583142	general	-0.05933965
-4.361293	general's	-0.05497701
-4.361293	generalizations	-0.05442846
-4.361293	generalize	-0.05418233
-4.361293	generally	-0.05499592
-4.060263	generals	-0.001877789
-4.361293	generations	-0.008344873
-4.060263	generous	-0.0540687
-4.361293	generously	-0.008344873
-4.361293	gentle	-0.05327234
-4.060263	gentleman	-0.1951366
-4.060263	gently	-0.05476904
-4.361293	genuinely	-0.05501482
-4.361293	geocentricism	-0.05499592
-4.361293	geographically	-0.008344873
-4.060263	geological	-0.05495812
-4.060263	george	-0.04990017
-2.94632	get	0.008920266
-4.060263	gets	-0.05463663
-3.662323	getting	-0.03301293
-4.361293	ghetto	-0.05499592
-4.361293	ghettos	-0.008344873
-4.361293	ghost	-0.0549203
-4.361293	ghostlike	-0.05501482
-4.361293	giant	-0.05499592
-4.361293	giants	-0.05490139
-3.884172	gift	-0.2620303
-4.361293	gifted	-0.05291161
-4.361293	gifts	-0.05201798
-4.361293	gigantic	-0.05499592
-4.060263	gin	-0.05497703
-4.361293	giraffes	-0.0523224
-3.458203	girl	-0.04372335
-4.361293	girlie	-0.05325336
-4.361293	girlishly	-0.05499592
-4.060263	girls	-0.03742466
-3.24735	give	-0.2560875
-3.583142	given	-0.1131344
-3.759233	gives	-0.0339068
-4.060263	givin'	-0.05313948
-3.884172	glass	-0.05486358
-4.361293	glazed	-0.05266462
-4.361293	glazing	-0.04788727
-4.060263	gleam	-0.04842496
-4.361293	gleamed	-0.04923023
-4.361293	gleaming	-0.05497701
-4.361293	glee-club	-0.04788727
-4.361293	glimpse	-0.0472912
-4.361293	glistened	-0.04923023
-4.361293	glistening	-0.05493921
-4.361293	gloom	-0.008344873
-4.361293	glories	-0.0472912
-4.361293	glorified	-0.05266462
-4.361293	glossy	-0.05484467
-4.361293	gloves	-0.04719498
-4.060263	glow	0.0002851753
-4.361293	glowed	-0.05501482
-4.361293	glue	-0.05501482
-4.361293	glued	-0.05497701
-4.361293	gluttons	-0.008344873
-3.018871	go	-0.05072924
-4.361293	go-cart	-0.0546177
-4.361293	goal	-0.008344873
-4.060263	goals	-0.04894281
-4.361293	goat	-0.05501482
-3.583142	goes	-0.05188472
-4.361293	goin'	-0.05497701
-3.361293	going	-0.3154132
-4.060263	gold	-0.05499593
-4.361293	golfing	-0.05501482
-3.407051	gone	-0.3080095
-3.884172	gonna	-0.05427702
-2.884172	good	-0.01736454
-4.361293	good-news	-0.0547312
-4.361293	good-size	-0.05484467
-4.361293	goodness	-0.04788727
-4.361293	goodnight	-0.05186569
-4.361293	goose	-0.05476902
-4.361293	gooseberry	-0.05495811
-4.361293	gorgeous	-0.05501482
-4.361293	gosh	-0.0374837
-3.060263	got	-0.07335538
-4.361293	goulash	-0.05197991
-4.361293	govern	-0.05490139
-4.361293	governing	-0.05501482
-3.759233	government	-0.0549014
-4.361293	governor	-0.008344873
-4.361293	gowns	-0.008344873
-4.361293	grab	-0.05499592
-4.361293	gracefully	-0.05308252
-4.361293	grade-equivalent	-0.05190376
-4.361293	grades	-0.05493921
-4.060263	gradually	-0.0470025
-4.361293	graduation	-0.05490139
-4.060263	grains	-0.04652088
-4.361293	grandmother	-0.05501482
-4.060263	grants	-0.04422102
-4.060263	graph	-0.005642541
-4.361293	grateful	-0.008344873
-4.361293	graying	-0.05501482
-4.361293	grazing	-0.05497701
-4.361293	greasing	-0.05412551
-4.361293	greasy	-0.05499592
-3.215165	great	-0.07644884
-4.361293	greater	-0.05497701
-4.361293	greatly	-0.05499592
-4.361293	greedily	-0.04788727
-4.361293	green	-0.05501482
-4.361293	greenness	-0.008344873
-4.060263	greeted	-0.05114159
-4.060263	greg	-0.04717575
-4.361293	gregory	-0.04788727
-4.361293	grievance	-0.05190376
-4.060263	grievances	-0.1951366
-4.060263	grill	-0.05459879
-4.361293	grin	-0.0472912
-4.060263	grinned	-0.00570607
-4.361293	grip	-0.0526076
-4.361293	groin	-0.05493921
-4.361293	groom	-0.05495811
-4.361293	gross	-0.05499592
-4.361293	grotesque	-0.05497701
-4.060263	ground	-0.0548825
-4.361293	groundhog	-0.05493921
-3.516195	group	-0.04177253
-4.361293	groups	-0.008344873
-3.884172	grow	-0.05488249
-4.060263	growing	-0.05499593
-4.060263	grown	-0.04677138
-4.361293	grownups	-0.05495811
-3.884172	grows	-0.05180857
-4.361293	growth	-0.0472912
-4.361293	grudgingly	-0.05327234
-4.361293	grunt	-0.05499592
-4.361293	guaranteed	-0.05355692
-4.060263	guarantees	-0.05184666
-4.060263	guard	-0.05133226
-4.361293	guerrilla	-0.05501482
-4.361293	guerrillas	-0.0532154
-4.060263	guess	-0.03687317
-4.361293	guidance	-0.04788727
-4.361293	guide	-0.05501482
-4.361293	guidebook	-0.05499592
-4.361293	guides	-0.05201798
-4.361293	guilt	-0.04788727
-3.884172	guilty	-0.05488249
-4.361293	gum	-0.04997666
-4.361293	gums	-0.04788727
-4.060263	gun	-0.05497703
-4.060263	gunman	-0.05492031
-4.361293	gunpoint	-0.05197991
-4.361293	gunpowder	-0.05197991
-4.361293	guns	-0.0532154
-4.361293	gurgle	-0.0472912
-4.361293	gus	-0.05469337
-4.361293	gushed	-0.05499592
-4.361293	guttural	-0.05495811
-3.884172	guy	0.001790611
-4.361293	guys	-0.05423914
-4.361293	gwen	-0.05501482
-4.361293	gyro	-0.05501482
-4.361293	gyrocompass	-0.05501482
-4.060263	ha	-0.008302787
-4.361293	habit	-0.008344873
-2.568902	had	-0.1191855
-4.060263	hafta	-0.05440954
-4.361293	haggard	-0.04788727
-4.361293	hails	-0.05439061
-3.458203	hair	-0.03985857
-3.759233	half	-0.04719499
-4.361293	half-city	-0.04997666
-4.361293	half-inch	-0.05501482
-4.361293	half-man	-0.008344873
-4.060263	halloween	-0.008281738
-4.060263	hallway	-0.008323836
-4.361293	halves	-0.0526076
-4.361293	ham-radio	-0.05497701
-4.361293	ham:	-0.05439061
-3.282112	hand	-0.2055034
-4.361293	handbag	-0.05401186
-4.060263	handful	-0.0468677
-4.361293	handle	-0.0374837
-4.361293	handling	-0.05490139
-3.583142	hands	-0.09746172
-4.361293	handsome	-0.05501482
-4.361293	handy	-0.008344873
-4.361293	handyman-carpenter	-0.008344873
-4.361293	hanging	-0.0526076
-4.361293	hangovers	-0.008344873
-4.361293	happen	-0.04719498
-4.060263	happened	-0.04654015
-4.060263	happening	-0.05196088
-4.361293	happier	-0.04923023
-4.361293	happily	-0.05422021
-3.884172	happy	-0.05355692
-3.319901	hard	-0.08312874
-4.060263	hardly	-0.04348404
-4.361293	hardy	-0.05501482
-4.361293	harmlessly	-0.05325336
-4.361293	harmonize	-0.05501482
-4.361293	harmony	-0.008344873
-4.361293	harms	-0.0437169
-4.361293	harsh	-0.008344873
-2.708081	has	-0.1505566
-4.361293	hastily	-0.0374837
-3.884172	hat	-0.005261165
-3.759233	hate	-0.03301292
-4.361293	hated	-0.05465553
-4.361293	hatred	-0.0472912
-4.361293	hats	-0.05201798
-4.361293	haughty	-0.05499592
-4.361293	hauling	-0.05493921
-4.361293	haunted	-0.05486358
-2.510035	have	-0.04267827
-4.060263	haven't	-0.05465554
-3.884172	having	-0.158866
-4.361293	hawing	-0.05368965
-3.884172	hay	-0.04781041
-4.361293	hazards	-0.04719498
-4.060263	haze	-0.008281738
-1.876994	he	-0.2241859
-3.759233	he'd	-0.05199895
-3.759233	he'll	-0.1357142
-3.662323	he's	-0.04288189
-3.319901	head	-0.2340678
-4.361293	head-in-the-clouds	-0.05501482
-4.361293	headache	-0.008344873
-4.361293	headaches	-0.05197991
-4.361293	heading	-0.008344873
-4.361293	headquarters	-0.05342414
-4.060263	heads	-0.008092252
-4.361293	healing	-0.008344873
-4.361293	health	-0.0549203
-4.361293	healthful	-0.05499592
-4.361293	healthier	-0.04719498
-4.361293	healthy	-0.05197991
-4.361293	heap	-0.008344873
-3.884172	hear	-0.02358557
-4.060263	heard	0.01124258
-4.361293	heart	-0.05497701
-4.060263	heartily	-0.1951366
-3.884172	heat	-0.1235505
-4.361293	heat's	-0.05488249
-4.361293	heater	-0.04997666
-4.361293	heating	-0.05482576
-4.361293	heave	-0.0526076
-4.361293	heaven	-0.04788727
-4.361293	heavens	-0.05499592
-4.361293	heavier	-0.05463662
-3.759233	heavy	-0.04763741
-4.361293	heck	-0.0472912
-3.884172	heels	-0.1669972
-4.361293	heights	-0.05325336
-4.361293	held	-0.05186569
-4.361293	helium	-0.05495811
-4.060263	hell	-0.007923749
-4.060263	hello	-0.05492031
-3.215165	help	-0.08507063
-4.060263	helpful	-0.05323439
-4.361293	helping	-0.05499592
-4.361293	helpless	-0.04923023
-4.060263	helps	-0.03712931
-4.361293	hem	-0.05501482
-4.060263	hemorrhage	0.0002851753
-3.884172	hen	-0.05177048
-4.361293	henceforth	-0.008344873
-4.361293	henry	-0.05465553
-4.361293	hepatitis	-0.04923023
-2.39281	her	0.01914967
-4.361293	herb's	-0.05497701
-4.361293	herd	-0.0549203
-4.060263	herdin'	-0.1951366
-3.039074	here	-0.03064409
-4.361293	here's	-0.0547312
-4.361293	heritage	-0.04997666
-4.361293	hero	-0.008344873
-4.361293	heroes	-0.05495811
-4.060263	heroic	-0.05492031
-4.361293	heroism	-0.008344873
-3.662323	herself	-0.004370003
-4.361293	hesitate	-0.008344873
-4.361293	hey	-0.05469337
-4.361293	hibachi	-0.04923023
-4.060263	hide	-0.04360049
-4.361293	hides	-0.0374837
-4.361293	hiding	-0.05422021
-4.361293	hierarchies	-0.008344873
-3.185202	high	0.01371556
-3.662323	higher	-0.0292986
-4.361293	highest	-0.05501482
-3.884172	highly	-0.0549203
-4.361293	highway	-0.04788727
-4.361293	hiking	-0.008344873
-4.361293	hills	-0.05499592
-4.361293	hillside	-0.05264561
-2.469199	him	-0.1418149
-3.106021	himself	-0.1386897
-4.361293	hindu	-0.05501482
-4.361293	hint	-0.0472912
-4.361293	hire	-0.05478794
-3.884172	hired	-0.04348404
-4.361293	hires	-0.05499592
-4.361293	hiring	-0.0374837
-2.138577	his	-0.06472999
-4.361293	hispanic	-0.05497701
-4.361293	historians	-0.05368965
-4.361293	historical	-0.05497701
-4.361293	historically	-0.0437169
-3.662323	history	0.01569079
-4.060263	hit	-0.03744434
-4.361293	hoarse	-0.05482576
-3.884172	hold	-0.04898114
-4.361293	holder	-0.05408763
-4.060263	holding	-0.05102714
-4.060263	holds	-0.04138261
-4.361293	holds:	-0.0437169
-4.361293	hole	-0.04923023
-4.361293	holes	-0.04923023
-4.361293	holiday	-0.05501482
-4.361293	holidays	-0.008344873
-3.157173	home	-0.3038467
-4.361293	home-made	-0.05501482
-4.361293	homes	-0.008344873
-4.361293	homogeneous	-0.05497701
-4.060263	honest	-0.04786807
-4.361293	honesty	-0.05501482
-3.759233	honey	-0.08494432
-4.361293	honeybees	-0.05493921
-3.583142	honor	-0.05931847
-4.361293	hood	-0.0472912
-4.361293	hoofs	-0.05306353
-4.361293	hook	-0.008344873
-4.361293	hooking	-0.05306353
-3.583142	hope	0.01738466
-4.361293	hoped	-0.05264561
-4.361293	hopeful	-0.05495811
-4.361293	hopeless	-0.008344873
-3.759233	horizon	-0.1638561
-4.361293	horror	-0.008344873
-3.759233	horse	-0.04901947
-4.361293	horseback	-0.05499592
-4.361293	horseplay	-0.008344873
-4.361293	horses	-0.04788727
-4.060263	hospitalization	-0.002710118
-4.361293	hospitals	-0.008344873
-4.361293	host	-0.0472912
-4.361293	hostages	-0.05376549
-3.407051	hot	-0.03517639
-4.361293	hotel	-0.05499592
-4.361293	hotels	-0.04788727
-3.759233	hour	-0.0913536
-3.662323	hours	-0.1255649
-3.407051	house	-0.02574309
-4.361293	household	-0.0549203
-4.361293	householder	-0.05499592
-4.361293	houses	-0.05501482
-4.361293	housewives	-0.05456093
-4.361293	housework	-0.008344873
-4.361293	housing	-0.0374837
-2.869932	how	-0.05726288
-3.884172	how's	-0.1653945
-3.319901	however	-0.06829241
-4.361293	hub	-0.05190376
-3.662323	huge	-0.05486359
-4.361293	hugged	-0.0374837
-4.060263	hugging	-0.03564953
-4.361293	hull	-0.008344873
-4.361293	hum	-0.05493921
-3.884172	human	-0.0549014
-4.361293	humanism	-0.008344873
-4.361293	humid	-0.05499592
-4.361293	humidity	-0.05501482
-4.361293	humor	-0.0472912
-4.361293	humorous	-0.0549203
-3.884172	hundred	-0.05463662
-3.662323	hung	-0.1801695
-4.361293	hungarian	-0.05501482
-4.361293	hunter	-0.0546177
-4.361293	hurriedly	-0.05501482
-4.060263	hurry	-0.05442847
-4.361293	hurt	-0.05178952
-4.361293	hurts	-0.05406869
-4.060263	husband	-0.05287363
-4.361293	husband's	-0.05501482
-4.361293	husbandry	-0.05190376
-4.361293	husky	-0.05488249
-4.361293	hut	-0.05499592
-4.361293	hyacinths	-0.05401186
-4.361293	hyena	-0.05201798
-4.361293	hyenas	-0.04788727
-4.361293	hypocrites	-0.008344873
-4.361293	hypothalamic	-0.05499592
-4.361293	hypothetical	-0.05450417
-4.060263	hysterical	-0.008323836
-2.869932	i	-0.06627572
-4.060263	i'd	-0.05493922
-4.361293	i'll	-0.05368965
-3.884172	i'm	-0.05384131
-4.361293	i've	-0.05465553
-3.759233	ice	-0.1382556
-4.361293	ices	-0.008344873
-4.361293	icicles	-0.05493921
-4.060263	icy	-0.05499593
-3.407051	idea	-0.0676075
-3.884172	ideal	-0.05184665
-4.361293	ideally	-0.04923023
-3.516195	ideas	-0.1499585
-4.060263	identical	-0.05289262
-4.361293	identifiable	-0.0549203
-4.361293	identified	-0.05266462
-4.060263	identify	-0.05253157
-4.060263	ideological	-0.05499593
-4.361293	ideology	-0.0549203
-4.361293	idiosyncrasies	-0.008344873
-4.361293	idiotic	-0.05501482
-4.361293	idiotically	-0.008344873
-4.361293	idly	-0.05501482
-4.361293	idolize	-0.008344873
-2.6289	if	-0.3456447
-4.361293	ignore	-0.0374837
-3.884172	ignored	-0.2911691
-4.361293	ignores	-0.05501482
-4.361293	iguanas	-0.04788727
-4.361293	ill	-0.04788727
-4.361293	illegal	-0.04719498
-4.361293	illegally	-0.05501482
-4.361293	illness	-0.008344873
-4.361293	illnesses	-0.04788727
-4.060263	illuminated	-0.008260689
-4.060263	illuminating	-0.008302787
-4.361293	illumined	-0.0374837
-4.361293	illusions	-0.008344873
-3.759233	image	0.0005214034
-4.361293	images	-0.05342414
-4.361293	imagination	-0.008344873
-4.361293	imagine	-0.05108436
-4.060263	imagined	-0.1951366
-4.361293	imitate	-0.0374837
-4.361293	immaterial	-0.05283562
-3.884172	immediate	-0.04782962
-4.361293	immediately	-0.05266462
-4.361293	immortal	-0.008344873
-4.361293	impact	-0.0472912
-4.361293	imperfect	-0.05478794
-4.361293	impersonal	-0.05501482
-4.361293	implausibly	-0.05493921
-4.361293	implications	-0.04788727
-4.361293	implied	-0.05342414
-4.361293	import	-0.05456093
-3.884172	importance	0.003842077
-3.319901	important	-0.02126445
-4.361293	imports	-0.05283562
-4.361293	imposes	-0.0437169
-3.884172	impossible	-0.1148342
-4.361293	impressions	-0.05456093
-4.361293	improved	-0.008344873
-4.060263	improving	-0.05499593
-4.361293	impulses	-0.008344873
-1.876994	in	-0.1597575
-4.361293	inadequate	-0.008344873
-4.361293	inadvisable	-0.008344873
-4.361293	inanimate	-0.05497701
-4.361293	inarticulate	-0.05423914
-4.361293	inaugural	-0.05501482
-4.361293	include:	-0.05493921
-4.060263	included	-0.05279764
-4.361293	including	-0.05501482
-4.361293	inclusions	-0.008344873
-3.884172	income	-0.005663711
-4.361293	incomplete	-0.05501482
-4.361293	incorporated	-0.04923023
-4.361293	increase	-0.05327234
-3.759233	increased	-0.0453628
-4.060263	increases	-0.008260689
-4.361293	increasing	-0.05501482
-3.583142	indeed	-0.001300612
-4.060263	indefinable	-0.008281738
-4.361293	indefinite	-0.05499592
-4.361293	indemnity	-0.008344873
-4.361293	independent	-0.05495811
-4.361293	index	-0.05493921
-4.361293	indicate	-0.05497701
-4.361293	indicated	-0.008344873
-4.361293	indicates	-0.0437169
-4.361293	indispensable	-0.008344873
-3.759233	individual	-0.0546177
-4.361293	individuals	-0.05501482
-4.361293	indulge	-0.04923023
-3.884172	industry	-0.05493921
-4.361293	ineffective	-0.05501482
-4.361293	inertia	-0.0472912
-4.060263	inevitable	-0.1951366
-4.361293	inexact	-0.008344873
-4.361293	inexcusable	-0.008344873
-4.361293	inexhaustible	-0.05495811
-4.361293	infancy	-0.04788727
-4.060263	infection	-0.008071193
-4.361293	infectious	-0.05501482
-4.361293	inferences	-0.008344873
-4.361293	inferiority	-0.05501482
-4.361293	infidels	-0.05501482
-4.361293	infield	-0.04719498
-4.361293	infiltration	-0.04923023
-4.361293	inflammatory	-0.05497701
-4.361293	inflated	-0.008344873
-4.361293	influences	-0.05408763
-4.060263	information	-0.005642541
-4.060263	informative	-0.05196088
-4.361293	informed	-0.05355692
-4.361293	infrequent	-0.008344873
-4.361293	infuriation	-0.0472912
-4.361293	ingenuity	-0.05408763
-4.361293	ingredient	-0.04923023
-4.060263	ingredients	-0.04198685
-4.361293	ingredients:	-0.05501482
-4.361293	inhabit	-0.0437169
-4.361293	inherited	-0.05440953
-4.361293	inhibit	-0.0374837
-4.361293	inhibitor	-0.008344873
-4.361293	inhuman	-0.05499592
-4.060263	initiative	-0.001877789
-4.361293	injected	-0.05427701
-4.361293	injection-molded	-0.05497701
-4.361293	injuries	-0.008344873
-4.361293	innocence	-0.008344873
-4.361293	inquired	-0.05197991
-4.361293	inquiry	-0.05108436
-4.361293	insecticide	-0.05501482
-4.361293	insecticides	-0.04788727
-4.361293	insert	-0.05495811
-4.060263	inside	-0.03746403
-4.361293	insist	-0.05275963
-4.361293	instability	-0.008344873
-4.361293	installations	-0.008344873
-4.361293	installed	-0.008344873
-4.361293	instance	-0.05456093
-4.361293	instant	-0.0374837
-4.361293	instantaneous	-0.008344873
-3.884172	instead	-0.1149415
-4.361293	instinct	-0.0472912
-3.884172	instructions	-0.04686769
-4.361293	instrument	-0.0472912
-4.361293	instruments	-0.008344873
-4.361293	insufficient	-0.04719498
-4.060263	insulate	-0.0548825
-4.361293	insulator	-0.04997666
-3.662323	insurance	-0.005938926
-4.361293	integrated	-0.05291161
-4.060263	integration	0.0002851753
-4.361293	integrity	-0.05190376
-3.884172	intelligence	-0.002688789
-4.361293	intelligent	-0.05495811
-4.361293	intelligible	-0.008344873
-4.361293	intent	-0.0472912
-4.361293	interchangeably	-0.008344873
-4.060263	interest	-0.236022
-4.361293	interested	-0.05488249
-4.361293	interesting	-0.05401186
-3.884172	interior	-0.001856419
-4.361293	internal	-0.05497701
-4.361293	interpretation	-0.0472912
-4.361293	interpretations	-0.05490139
-4.060263	intervals	-0.05340518
-4.361293	interview	-0.05291161
-4.361293	interviewee	-0.05401186
-4.361293	interweaving	-0.05501482
-4.361293	intimate	-0.05501482
-2.78151	into	-0.1783856
-4.361293	introduced	-0.04923023
-4.361293	intrusions	-0.008344873
-4.361293	intuition	-0.04788727
-4.361293	invade	-0.05444739
-4.361293	invaluable	-0.008344873
-4.060263	invariably	-0.05459879
-4.361293	inventories	-0.05342414
-4.361293	invest	-0.04923023
-4.361293	investigation	-0.008344873
-4.361293	investigations	-0.008344873
-4.361293	inviolate	-0.05497701
-4.361293	invitation	-0.008344873
-4.361293	invoked	-0.05499592
-3.759233	involved	-0.08460211
-4.060263	involves	-0.2242754
-4.361293	involving	-0.05501482
-4.361293	inward	-0.05306353
-4.361293	inwardly	-0.05495811
-4.361293	irate	-0.05501482
-4.361293	iris	-0.05499592
-4.361293	irish	-0.05499592
-4.361293	iron	-0.05197991
-4.361293	iron-poor	-0.008344873
-4.361293	ironic	-0.05495811
-4.361293	ironically	-0.05467445
-4.361293	ironing	-0.05501482
-4.361293	irons	-0.008344873
-4.361293	irradiation	-0.05497701
-4.361293	irremediable	-0.008344873
-4.361293	irresponsible	-0.008344873
-4.361293	irritated	-0.008344873
-4.361293	irving's	-0.05469337
-1.936412	is	-0.1379252
-4.361293	isn't	-0.05275963
-4.361293	isotopes	-0.04719498
-4.361293	issue	-0.05201798
-4.361293	issued	-0.008344873
-4.361293	issues	-0.04719498
-2.04323	it	-0.1639777
-4.361293	it'd	-0.0523224
-3.106021	it's	-0.1043022
-4.361293	itching	-0.05499592
-4.361293	item	-0.0526076
-4.361293	itemize	-0.0536707
-3.884172	items	-0.1109515
-2.829814	its	-0.05274063
-3.516195	itself	-0.06879675
-4.361293	ivory	-0.04997666
-4.361293	jabbed	-0.05342414
-4.361293	jackass	-0.05490139
-4.361293	jacket	-0.04788727
-4.361293	jaded	-0.05501482
-4.361293	jagged	-0.05497701
-4.361293	jaguars	-0.0526076
-4.361293	jam	-0.008344873
-4.361293	jane	-0.05420127
-4.361293	january	-0.05201798
-4.060263	jar	-0.05495812
-4.361293	jars	-0.05201798
-4.361293	jaw	-0.05501482
-4.361293	jealousies	-0.04788727
-4.361293	jealousy	-0.008344873
-4.361293	jeep	-0.05190376
-4.361293	jeff	-0.0547312
-4.361293	jeff's	-0.05501482
-4.361293	jennifer's	-0.05501482
-4.361293	jeopardize	-0.05108436
-4.361293	jerk	-0.008344873
-4.361293	jerky	-0.05497701
-4.361293	jet	-0.008344873
-4.361293	jewel-bright	-0.05469337
-4.361293	jim	-0.0549203
-4.361293	jim's	-0.05499592
-3.407051	job	-0.05462164
-4.361293	jocular	-0.05501482
-4.361293	john	-0.05501482
-4.361293	john's	-0.05495811
-4.060263	join	-0.05380341
-4.361293	joining	-0.05493921
-4.361293	joint	-0.05501482
-4.361293	jokers	-0.008344873
-4.060263	jokes	-0.05439062
-4.060263	joking	-0.008302787
-4.361293	journal	-0.008344873
-4.361293	journalese	-0.008344873
-4.361293	journalist	-0.008344873
-4.361293	joyce	-0.008344873
-4.361293	judge	-0.0374837
-4.361293	judged	-0.05342414
-3.759233	juice	-0.09173264
-4.361293	juicy	-0.05501482
-4.361293	jump	-0.05108436
-4.361293	jumped	-0.05465553
-4.361293	jungle	-0.05501482
-4.361293	jungle-like	-0.05501482
-3.759233	junior	-0.004093793
-3.039074	just	0.01906385
-4.060263	justification	-0.04565262
-4.361293	kayak	-0.05446631
-4.361293	kayo	-0.05355692
-4.361293	keelson	-0.05454201
-3.106021	keep	-0.05199514
-3.759233	kept	-0.04586501
-4.361293	kernels	-0.05201798
-4.060263	kerosene	-0.05478795
-4.060263	key	-0.008323836
-4.361293	keyed	-0.04719498
-4.361293	keys	-0.05501482
-4.361293	kick	-0.05454201
-3.662323	kid	-0.1348919
-4.361293	kid's	-0.05501482
-4.361293	kidnappers	-0.008344873
-4.060263	kids	-0.04842496
-3.662323	kill	-0.1478216
-3.884172	killed	-0.03263495
-4.361293	kin	-0.04719498
-3.583142	kind	-0.6295794
-4.361293	kinda	-0.05423914
-4.361293	kindergarten	-0.05486358
-4.361293	kindly	-0.0549203
-4.361293	kippers	-0.05197991
-4.361293	kissed	-0.05327234
-4.060263	kitchen	-0.05300657
-4.361293	knack	-0.05197991
-4.361293	knee	-0.008344873
-4.361293	kneeling	-0.04719498
-4.361293	knees	-0.008344873
-3.407051	knew	-0.1584583
-4.361293	knick-knacks	-0.05484467
-4.361293	knife	-0.05486358
-4.361293	knifelike	-0.05497701
-4.361293	knit	-0.05499592
-4.361293	knitted	-0.05501482
-4.361293	knives	-0.008344873
-4.361293	knocked	-0.05422021
-3.130844	know	-0.06639616
-4.361293	knowed	-0.05266462
-4.361293	knowing	-0.04923023
-4.361293	knowingly	-0.008344873
-3.662323	known	-0.002987202
-3.759233	knows	0.01393706
-4.361293	labeled	-0.008344873
-3.759233	labor	-0.08611865
-4.060263	laboratory	-0.05495812
-4.361293	lacerate	-0.0374837
-3.884172	lack	-0.1149415
-4.361293	lackeys	-0.0472912
-4.361293	lactating	-0.05497701
-4.361293	lad	-0.05386026
-4.060263	ladder	-0.05476904
-4.361293	lady's	-0.05471228
-4.361293	ladylike	-0.05499592
-4.361293	lagoon	-0.05497701
-4.361293	laid	-0.05484467
-4.361293	lake	-0.008344873
-4.361293	lamb's	-0.05501482
-4.060263	lamp	-0.05480686
-4.060263	lamps	-0.03559024
-4.361293	land	-0.008344873
-4.361293	land-based	-0.05499592
-4.060263	landlord	-0.1951366
-4.361293	landmarks	-0.04923023
-3.759233	language	-0.04854009
-3.458203	large	-0.05433381
-4.361293	largely	-0.05499592
-3.759233	larger	-0.005938924
-4.361293	larvae	-0.05495811
-4.361293	lashed	-0.008344873
-4.361293	lashings	-0.05499592
-3.516195	last	-0.03355038
-4.361293	latches	-0.05439061
-4.361293	late	-0.008344873
-4.361293	latent	-0.05463662
-3.407051	later	-0.04856562
-4.060263	latest	-0.05486359
-4.361293	lathe	-0.008344873
-4.361293	latitudes	-0.04788727
-4.361293	latter	-0.05499592
-4.060263	laugh	-0.04786807
-3.759233	laughed	-0.1367971
-4.361293	laughing	-0.008344873
-4.361293	lavishly	-0.008344873
-3.516195	law	-0.04007382
-4.361293	lawful	-0.05501482
-4.361293	laws	-0.05501482
-4.361293	lawyer	-0.05190376
-4.361293	lawyers	-0.05488249
-3.884172	lay	-0.1698822
-4.361293	lay-up	-0.05501482
-4.060263	layoffs	-0.008281738
-4.060263	lazy	-0.05497703
-4.361293	lead	-0.008344873
-4.361293	leader	-0.04788727
-4.060263	leadership	-0.1951366
-4.060263	leading	-0.04569124
-4.361293	leaf	-0.05454201
-4.361293	leaflet	-0.05420127
-4.361293	leagues	-0.05201798
-4.361293	leap	-0.05501482
-3.884172	learn	-0.03960403
-4.361293	learned	-0.05501482
-4.060263	least	-0.03746403
-3.884172	leather	-0.008092244
-3.884172	leave	-0.04984278
-3.662323	leaves	0.04089924
-4.361293	leaving	-0.05459878
-4.361293	leavings	-0.008344873
-4.060263	led	-0.04598083
-4.361293	ledger	-0.04923023
-4.361293	leeway	-0.05463662
-3.319901	left	0.01276446
-4.060263	leg	-0.008281738
-4.361293	legal	-0.0549203
-4.060263	legend	-0.05414446
-4.361293	legged	-0.05501482
-3.884172	legislation	-0.1200849
-4.361293	legislative	-0.008344873
-4.361293	legislature	-0.0549203
-3.884172	legs	-0.0546177
-4.361293	leisure	-0.008344873
-4.361293	lemon	-0.05499592
-4.060263	length	-0.04717575
-4.361293	lengthy	-0.05499592
-4.361293	lentils	-0.04923023
-4.361293	leopards	-0.008344873
-3.516195	less	-0.007206875
-4.060263	lesson	-0.04478262
-4.060263	lessons	-0.005642541
-4.361293	lest	-0.05186569
-3.130844	let	-0.3270195
-3.759233	let's	-0.05173239
-4.060263	letter	-0.1951366
-3.884172	letters	-0.05173239
-4.060263	level	-0.1951366
-4.361293	level's	-0.05442846
-4.361293	leveling	-0.05493921
-3.884172	levels	-0.2620303
-4.361293	lewd	-0.05501482
-4.361293	liberal-led	-0.05490139
-4.361293	liberals	-0.05201798
-4.060263	library	-0.0491153
-3.884172	lid	-0.002219442
-4.060263	lids	-0.008323836
-3.759233	lie	-0.08528627
-3.185202	life	-0.1812993
-4.361293	lifeboats	-0.0532154
-4.361293	lifelong	-0.05499592
-3.884172	lift	0.01183746
-4.361293	lifting	-0.05327234
-4.361293	ligament	-0.05499592
-3.583142	light	-0.05999583
-4.361293	lightbulbs	-0.04788727
-3.884172	lighted	-0.05389817
-4.361293	lighter	-0.05499592
-3.884172	lightly	-0.1231083
-4.361293	lights	-0.05501482
-2.738044	like	-0.09751098
-3.884172	liked	0.002221694
-4.361293	likely	-0.04719498
-4.060263	likes	-0.05401186
-4.361293	likewise	-0.0526076
-4.361293	lily	-0.008344873
-4.361293	limit	-0.0526076
-4.361293	limited	-0.05499592
-4.361293	lincoln	-0.05499592
-3.662323	line	-0.006826881
-3.516195	lines	-0.08665927
-4.361293	lion	-0.04923023
-4.060263	lip	0.0002851753
-3.662323	lips	-0.008029066
-4.060263	liquid	-0.05499593
-4.361293	liquids	-0.05469337
-4.361293	liquor	-0.008344873
-4.060263	list	0.0002851753
-4.361293	listed	-0.008344873
-4.361293	lists	-0.04788727
-4.361293	literally	-0.008344873
-4.361293	literary	-0.05497701
-3.759233	literature	-0.04861683
-4.361293	lithographs	-0.008344873
-4.361293	litter	-0.05495811
-3.24735	little	-0.05279763
-3.583142	live	-0.001471703
-4.060263	lived	-0.03991728
-4.060263	lively	-0.05440954
-4.060263	lives	-0.236022
-3.884172	livestock	-0.007797322
-3.759233	living	-0.0006370018
-4.361293	loaded	-0.0437169
-4.361293	loads	-0.008344873
-4.361293	lobes	-0.0472912
-3.884172	local	-0.05429595
-4.361293	locate	-0.05501482
-4.361293	location	-0.04719498
-4.361293	lock	-0.05404975
-4.361293	locked	-0.05404975
-4.361293	lodge	-0.05501482
-4.361293	logical	-0.04788727
-4.361293	logically	-0.05325336
-4.361293	logs	-0.0472912
-4.361293	lone	-0.05501482
-4.361293	loneliness	-0.05190376
-2.963353	long	-0.07380263
-4.361293	long-overdue	-0.05501482
-4.361293	long-range	-0.05499592
-4.361293	long-term	-0.05497701
-4.361293	longed	-0.04719498
-3.319901	longer	-0.03507209
-4.361293	longitudes	-0.05501482
-3.185202	look	-0.1025743
-3.282112	looked	-0.09911796
-4.060263	looking	-0.05018697
-3.884172	looks	-0.1693143
-4.361293	looms	-0.0526076
-3.884172	loose	-0.05495812
-4.361293	lori's	-0.05501482
-3.759233	lose	-0.03382742
-4.060263	loss	-0.008281738
-4.361293	losses	-0.0472912
-3.458203	lost	-0.03198059
-3.583142	lot	-0.2228699
-4.361293	lotions	-0.008344873
-4.060263	lots	-0.2340829
-4.361293	loudest	-0.008344873
-3.884172	loudly	-0.0429402
-4.361293	louse	-0.05384131
-4.361293	lousiness	-0.04997666
-3.458203	love	-0.07711955
-4.060263	loved	-0.02931865
-4.060263	lovely	-0.0547123
-4.361293	lovie	-0.05178952
-4.361293	loving	-0.05497701
-3.759233	low	-0.002965893
-3.583142	lower	-0.1004781
-4.060263	lowered	-0.04744511
-4.060263	loyal	-0.05492031
-4.361293	loyalties	-0.04788727
-3.759233	luck	-0.005324751
-4.361293	lucky	-0.05499592
-4.361293	lullaby	-0.04788727
-4.361293	lumber	-0.05501482
-4.361293	lunch	-0.008344873
-4.361293	lunchroom	-0.05501482
-4.361293	lungs	-0.05501482
-4.361293	lush	-0.05501482
-4.361293	luxurious	-0.05499592
-4.060263	luxury	-0.1951366
-4.361293	lying	-0.05414445
-4.060263	ma'am	-0.0333707
-4.361293	macabre	-0.008344873
-3.884172	machine	-0.05486358
-4.060263	machinery	-0.008218586
-4.361293	machines	-0.008344873
-4.361293	mad	-0.05467445
-2.94632	made	-0.1723778
-4.361293	madstones	-0.05465553
-4.060263	magnetic	-0.05291162
-4.060263	magnetism	-0.0003798511
-4.361293	magnificently	-0.05501482
-4.361293	magnified	-0.05346208
-4.361293	magpies	-0.008344873
-4.361293	mahogany	-0.05495811
-4.361293	maids'	-0.05501482
-4.361293	mail	-0.0374837
-3.759233	main	-0.05437168
-4.361293	maintain	-0.008344873
-4.060263	maintenance	-0.1951366
-3.884172	major	-0.05493921
-3.884172	majority	-0.04437601
-2.829814	make	-0.09057336
-3.516195	makes	-0.03531341
-4.361293	making	-0.05501482
-4.060263	maladies	-0.05188473
-4.361293	malaria	-0.008344873
-4.361293	male	-0.05501482
-4.361293	mammals	-0.008344873
-2.981082	man	-0.1224436
-3.884172	man's	-0.0549203
-4.361293	manage	-0.05108436
-4.361293	managed	-0.05308252
-4.361293	management	-0.05501482
-4.361293	mandates	-0.05501482
-4.361293	mango	-0.04788727
-4.361293	manhood	-0.05386026
-4.361293	manifest	-0.05490139
-4.361293	manner	-0.05275963
-4.361293	mannerism	-0.008344873
-4.060263	manners	-0.05493922
-4.361293	manual	-0.05501482
-4.361293	manufacturer	-0.05418233
-4.361293	manufacturers	-0.008344873
-4.361293	manure	-0.05501482
-2.914135	many	-0.05222748
-4.361293	many-bodied	-0.05488249
-4.361293	map	-0.04788727
-4.361293	mare's	-0.05501482
-4.361293	margaret	-0.008344873
-3.759233	marine	-0.008281733
-4.361293	marine's	-0.05501482
-3.884172	mark	-0.1149415
-3.884172	marketing	-0.1700903
-4.060263	markets	-0.04740664
-4.361293	marks	-0.008344873
-4.361293	marksmanship	-0.05495811
-3.759233	marriage	-0.1833804
-4.361293	married	-0.0549203
-4.361293	marshmallows	-0.0526076
-4.361293	marvel	-0.008344873
-4.361293	marvelously	-0.008344873
-4.060263	mask	-0.05070272
-4.361293	masks	-0.04788727
-4.361293	masonry	-0.04788727
-4.361293	masquerade	-0.05499592
-4.060263	mass	-0.04605802
-4.060263	massage	0.01124258
-4.361293	massive	-0.05501482
-4.361293	master	-0.05108436
-4.361293	master's	-0.05480685
-4.361293	masterful	-0.008344873
-4.361293	matched	-0.05327234
-4.361293	matching	-0.05499592
-4.361293	mate	-0.008344873
-3.884172	material	-0.04097281
-4.060263	materials	-0.008323836
-4.361293	materials:	-0.05501482
-4.361293	mates	-0.05501482
-4.361293	mathematics	-0.05493921
-4.361293	mathews	-0.05469337
-3.884172	matter	-0.121208
-4.060263	matters	-0.007249083
-4.361293	mattresses	-0.04788727
-4.361293	maturity	-0.008344873
-4.361293	maximal	-0.05499592
-4.361293	maximize	-0.05439061
-4.361293	maximum	-0.008344873
-2.717841	may	-0.3562686
-4.361293	mayan	-0.05501482
-3.130844	maybe	-0.08755708
-4.361293	mayonnaise	-0.008344873
-2.561953	me	-0.08237393
-4.361293	meadow	-0.04788727
-4.060263	meals	-0.05114159
-4.361293	mealynosed	-0.008344873
-3.458203	mean	-0.05950396
-4.361293	meaning	-0.05420127
-4.361293	meaningful	-0.04788727
-4.361293	meanness	-0.04788727
-3.516195	means	-0.04266802
-4.361293	meant	-0.05342414
-3.759233	meanwhile	-0.0371293
-4.060263	measure	-0.05165621
-3.884172	measured	-0.04917277
-4.060263	measurement	-0.008176479
-3.759233	meat	-0.05404975
-4.361293	meats	-0.04719498
-4.361293	meats:	-0.0374837
-4.361293	mechanic	-0.04997666
-4.361293	mechanical	-0.05501482
-4.361293	mechanism	-0.008344873
-4.361293	media	-0.008344873
-4.361293	median	-0.05501482
-4.361293	medical	-0.05501482
-4.060263	medicine	-0.1951366
-4.361293	medieval	-0.05499592
-4.361293	mediocrity	-0.05495811
-3.662323	meet	-0.02118108
-4.060263	meeting	-0.04834819
-4.361293	meetings	-0.04923023
-4.361293	melancholy	-0.05501482
-4.361293	melodramatic	-0.008344873
-4.361293	melody	-0.04997666
-4.361293	melted	-0.05501482
-4.361293	member	-0.05499592
-4.361293	members	-0.05501482
-4.361293	membership	-0.0526076
-4.361293	memo	-0.05197991
-4.361293	memorized	-0.0374837
-4.361293	memory	-0.05499592
-3.319901	men	-0.0517833
-4.060263	mental	-0.05304455
-4.361293	mentality	-0.0472912
-4.361293	mention	-0.05446631
-4.361293	meow	-0.05469337
-4.361293	mercenary:	-0.05501482
-4.361293	merchandising	-0.05501482
-4.361293	mercilessly	-0.008344873
-4.361293	mere	-0.05499592
-4.060263	merely	-0.04652088
-4.361293	merger	-0.05306353
-4.361293	mergers	-0.008344873
-4.060263	merit	-0.05255058
-4.361293	merrily	-0.008344873
-4.060263	mess	-0.006150512
-3.884172	message	0.0003066521
-4.361293	messy	-0.04788727
-3.583142	met	-0.02632023
-4.361293	metal	-0.008344873
-4.361293	metallic	-0.05501482
-4.361293	method	-0.008344873
-4.060263	methods	0.0002851753
-4.361293	mettle	-0.04788727
